<?xml version="1.0"?>
<MethodSetup Method="BDT::BDTG">
  <GeneralInfo>
    <Info name="TMVA Release" value="4.2.0 [262656]"/>
    <Info name="ROOT Release" value="6.02/05 [393733]"/>
    <Info name="Creator" value="gmancini"/>
    <Info name="Date" value="Wed Apr 19 17:59:01 2017"/>
    <Info name="Host" value="Linux lcgapp-slc6-physical1.cern.ch 2.6.32-504.1.3.el6.x86_64 #1 SMP Wed Nov 12 06:58:35 CET 2014 x86_64 x86_64 x86_64 GNU/Linux"/>
    <Info name="Dir" value="/afs/cern.ch/user/g/gmancini/bdt_ZZ_v12"/>
    <Info name="Training events" value="98450"/>
    <Info name="TrainingTime" value="1.09916697e+02"/>
    <Info name="AnalysisType" value="Classification"/>
  </GeneralInfo>
  <Options>
    <Option name="V" modified="Yes">False</Option>
    <Option name="VerbosityLevel" modified="No">Default</Option>
    <Option name="VarTransform" modified="No">None</Option>
    <Option name="H" modified="Yes">False</Option>
    <Option name="CreateMVAPdfs" modified="No">False</Option>
    <Option name="IgnoreNegWeightsInTraining" modified="No">False</Option>
    <Option name="NTrees" modified="Yes">1000</Option>
    <Option name="MaxDepth" modified="Yes">2</Option>
    <Option name="MinNodeSize" modified="Yes">2.5%</Option>
    <Option name="nCuts" modified="No">20</Option>
    <Option name="BoostType" modified="Yes">Grad</Option>
    <Option name="AdaBoostR2Loss" modified="No">quadratic</Option>
    <Option name="UseBaggedBoost" modified="Yes">True</Option>
    <Option name="Shrinkage" modified="Yes">1.000000e-01</Option>
    <Option name="AdaBoostBeta" modified="No">5.000000e-01</Option>
    <Option name="UseRandomisedTrees" modified="No">False</Option>
    <Option name="UseNvars" modified="No">2</Option>
    <Option name="UsePoissonNvars" modified="No">True</Option>
    <Option name="BaggedSampleFraction" modified="Yes">5.000000e-01</Option>
    <Option name="UseYesNoLeaf" modified="No">True</Option>
    <Option name="NegWeightTreatment" modified="No">ignorenegweightsintraining</Option>
    <Option name="Css" modified="No">1.000000e+00</Option>
    <Option name="Cts_sb" modified="No">1.000000e+00</Option>
    <Option name="Ctb_ss" modified="No">1.000000e+00</Option>
    <Option name="Cbb" modified="No">1.000000e+00</Option>
    <Option name="NodePurityLimit" modified="No">5.000000e-01</Option>
    <Option name="SeparationType" modified="No">giniindex</Option>
    <Option name="DoBoostMonitor" modified="No">False</Option>
    <Option name="UseFisherCuts" modified="No">False</Option>
    <Option name="MinLinCorrForFisher" modified="No">8.000000e-01</Option>
    <Option name="UseExclusiveVars" modified="No">False</Option>
    <Option name="DoPreselection" modified="No">False</Option>
    <Option name="SigToBkgFraction" modified="No">1.000000e+00</Option>
    <Option name="PruneMethod" modified="No">nopruning</Option>
    <Option name="PruneStrength" modified="No">0.000000e+00</Option>
    <Option name="PruningValFraction" modified="No">5.000000e-01</Option>
    <Option name="nEventsMin" modified="No">0</Option>
    <Option name="UseBaggedGrad" modified="No">False</Option>
    <Option name="GradBaggingFraction" modified="No">5.000000e-01</Option>
    <Option name="UseNTrainEvents" modified="No">0</Option>
    <Option name="NNodesMax" modified="No">0</Option>
  </Options>
  <Variables NVar="3">
    <Variable VarIndex="0" Expression="pt4l_fsr" Label="pt4l_fsr" Title="pt4l_fsr" Unit="" Internal="pt4l_fsr" Type="F" Min="3.77043746e-02" Max="6.24484009e+02"/>
    <Variable VarIndex="1" Expression="eta4l_unconstrained" Label="eta4l_unconstrained" Title="eta4l_unconstrained" Unit="" Internal="eta4l_unconstrained" Type="F" Min="-8.19154739e+00" Max="8.54025555e+00"/>
    <Variable VarIndex="2" Expression="KD_discriminant" Label="KD_discriminant" Title="KD_discriminant" Unit="" Internal="KD_discriminant" Type="F" Min="-6.77655697e+00" Max="9.93619251e+00"/>
  </Variables>
  <Spectators NSpec="0"/>
  <Classes NClass="2">
    <Class Name="Signal" Index="0"/>
    <Class Name="Background" Index="1"/>
  </Classes>
  <Transformations NTransformations="0"/>
  <MVAPdfs/>
  <Weights NTrees="1000" AnalysisType="1">
    <BinaryTree type="DecisionTree" boostWeight="1.0000000000000000e+00" itree="0">
      <Node pos="s" depth="0" NCoef="0" IVar="2" Cut="2.5983655452728271e+00" cType="1" res="-6.6759414039552212e-04" rms="4.9999955296516418e-01" purity="4.9933239817619324e-01" nType="0">
        <Node pos="l" depth="1" NCoef="0" IVar="0" Cut="6.5506401062011719e+01" cType="1" res="-2.7635127305984497e-01" rms="4.1668930649757385e-01" purity="2.2364872694015503e-01" nType="0">
          <Node pos="l" depth="2" NCoef="0" IVar="-1" Cut="0.0000000000000000e+00" cType="1" res="-2.9796311631798744e-02" rms="3.9402920007705688e-01" purity="1.9219976663589478e-01" nType="-99"/>
          <Node pos="r" depth="2" NCoef="0" IVar="-1" Cut="0.0000000000000000e+00" cType="1" res="-8.9991051936522126e-04" rms="4.9990063905715942e-01" purity="4.9003222584724426e-01" nType="-99"/>
        </Node>
        <Node pos="r" depth="1" NCoef="0" IVar="2" Cut="3.9378290176391602e+00" cType="1" res="1.3426414132118225e-01" rms="4.8163589835166931e-01" purity="6.3426411151885986e-01" nType="0">
          <Node pos="l" depth="2" NCoef="0" IVar="-1" Cut="0.0000000000000000e+00" cType="1" res="4.7109234146773815e-03" rms="4.9845206737518311e-01" purity="5.3931331634521484e-01" nType="-99"/>
          <Node pos="r" depth="2" NCoef="0" IVar="-1" Cut="0.0000000000000000e+00" cType="1" res="2.6990000158548355e-02" rms="4.2914739251136780e-01" purity="7.5657844543457031e-01" nType="-99"/>
        </Node>
      </Node>
    </BinaryTree>
    <BinaryTree type="DecisionTree" boostWeight="1.0000000000000000e+00" itree="1">
      <Node pos="s" depth="0" NCoef="0" IVar="2" Cut="2.8576066493988037e+00" cType="1" res="-7.2920724051073194e-04" rms="4.9534100294113159e-01" purity="4.9978682398796082e-01" nType="0">
        <Node pos="l" depth="1" NCoef="0" IVar="0" Cut="5.9544754028320312e+01" cType="1" res="-2.3222075402736664e-01" rms="4.3530800938606262e-01" purity="2.5713312625885010e-01" nType="0">
          <Node pos="l" depth="2" NCoef="0" IVar="-1" Cut="0.0000000000000000e+00" cType="1" res="-2.4801498278975487e-02" rms="4.1254377365112305e-01" purity="2.1901118755340576e-01" nType="-99"/>
          <Node pos="r" depth="2" NCoef="0" IVar="-1" Cut="0.0000000000000000e+00" cType="1" res="1.4009410515427589e-03" rms="4.9901741743087769e-01" purity="5.0995963811874390e-01" nType="-99"/>
        </Node>
        <Node pos="r" depth="1" NCoef="0" IVar="2" Cut="3.8250751495361328e+00" cType="1" res="1.5020963549613953e-01" rms="4.7335785627365112e-01" purity="6.5800368785858154e-01" nType="0">
          <Node pos="l" depth="2" NCoef="0" IVar="-1" Cut="0.0000000000000000e+00" cType="1" res="7.0006311871111393e-03" rms="4.9620240926742554e-01" purity="5.6150746345520020e-01" nType="-99"/>
          <Node pos="r" depth="2" NCoef="0" IVar="-1" Cut="0.0000000000000000e+00" cType="1" res="2.7788031846284866e-02" rms="4.3767532706260681e-01" purity="7.4141442775726318e-01" nType="-99"/>
        </Node>
      </Node>
    </BinaryTree>
    <BinaryTree type="DecisionTree" boostWeight="1.0000000000000000e+00" itree="2">
      <Node pos="s" depth="0" NCoef="0" IVar="2" Cut="2.8526878356933594e+00" cType="1" res="-1.0649430623743683e-04" rms="4.9107581377029419e-01" purity="5.0177621841430664e-01" nType="0">
        <Node pos="l" depth="1" NCoef="0" IVar="0" Cut="4.5815170288085938e+01" cType="1" res="-2.1792788803577423e-01" rms="4.3647786974906921e-01" purity="2.6069745421409607e-01" nType="0">
          <Node pos="l" depth="2" NCoef="0" IVar="-1" Cut="0.0000000000000000e+00" cType="1" res="-2.5882320478558540e-02" rms="4.0778326988220215e-01" purity="2.1199928224086761e-01" nType="-99"/>
          <Node pos="r" depth="2" NCoef="0" IVar="-1" Cut="0.0000000000000000e+00" cType="1" res="-2.5537216570228338e-03" rms="4.9731585383415222e-01" purity="4.7261011600494385e-01" nType="-99"/>
        </Node>
        <Node pos="r" depth="1" NCoef="0" IVar="0" Cut="2.7174968719482422e+01" cType="1" res="1.3996037840843201e-01" rms="4.7285529971122742e-01" purity="6.5679842233657837e-01" nType="0">
          <Node pos="l" depth="2" NCoef="0" IVar="-1" Cut="0.0000000000000000e+00" cType="1" res="6.9038737565279007e-03" rms="4.9186789989471436e-01" purity="5.7807230949401855e-01" nType="-99"/>
          <Node pos="r" depth="2" NCoef="0" IVar="-1" Cut="0.0000000000000000e+00" cType="1" res="3.6145195364952087e-02" rms="4.3251737952232361e-01" purity="7.4793386459350586e-01" nType="-99"/>
        </Node>
      </Node>
    </BinaryTree>
    <BinaryTree type="DecisionTree" boostWeight="1.0000000000000000e+00" itree="3">
      <Node pos="s" depth="0" NCoef="0" IVar="2" Cut="2.7735855579376221e+00" cType="1" res="-1.2574439868330956e-02" rms="4.8659431934356689e-01" purity="4.9132022261619568e-01" nType="0">
        <Node pos="l" depth="1" NCoef="0" IVar="0" Cut="5.2715145111083984e+01" cType="1" res="-2.2550494968891144e-01" rms="4.2498129606246948e-01" purity="2.4175463616847992e-01" nType="0">
          <Node pos="l" depth="2" NCoef="0" IVar="-1" Cut="0.0000000000000000e+00" cType="1" res="-2.2867629304528236e-02" rms="4.0015587210655212e-01" purity="2.0120170712471008e-01" nType="-99"/>
          <Node pos="r" depth="2" NCoef="0" IVar="-1" Cut="0.0000000000000000e+00" cType="1" res="-3.5947847645729780e-03" rms="4.9643188714981079e-01" purity="4.5475170016288757e-01" nType="-99"/>
        </Node>
        <Node pos="r" depth="1" NCoef="0" IVar="2" Cut="3.7968611717224121e+00" cType="1" res="1.1476159095764160e-01" rms="4.7648021578788757e-01" purity="6.4056468009948730e-01" nType="0">
          <Node pos="l" depth="2" NCoef="0" IVar="-1" Cut="0.0000000000000000e+00" cType="1" res="3.7263105623424053e-03" rms="4.9653857946395874e-01" purity="5.4185020923614502e-01" nType="-99"/>
          <Node pos="r" depth="2" NCoef="0" IVar="-1" Cut="0.0000000000000000e+00" cType="1" res="2.0043259486556053e-02" rms="4.4541504979133606e-01" purity="7.2541165351867676e-01" nType="-99"/>
        </Node>
      </Node>
    </BinaryTree>
    <BinaryTree type="DecisionTree" boostWeight="1.0000000000000000e+00" itree="4">
      <Node pos="s" depth="0" NCoef="0" IVar="2" Cut="2.5983655452728271e+00" cType="1" res="-2.8462589252740145e-03" rms="4.8245501518249512e-01" purity="5.0073790550231934e-01" nType="0">
        <Node pos="l" depth="1" NCoef="0" IVar="0" Cut="5.9540794372558594e+01" cType="1" res="-2.3651549220085144e-01" rms="4.0989527106285095e-01" purity="2.1864055097103119e-01" nType="0">
          <Node pos="l" depth="2" NCoef="0" IVar="-1" Cut="0.0000000000000000e+00" cType="1" res="-1.9959241151809692e-02" rms="3.8720327615737915e-01" purity="1.8408702313899994e-01" nType="-99"/>
          <Node pos="r" depth="2" NCoef="0" IVar="-1" Cut="0.0000000000000000e+00" cType="1" res="-3.3213882707059383e-03" rms="4.9772459268569946e-01" purity="4.5907810330390930e-01" nType="-99"/>
        </Node>
        <Node pos="r" depth="1" NCoef="0" IVar="2" Cut="3.6030213832855225e+00" cType="1" res="1.1203438043594360e-01" rms="4.7387140989303589e-01" purity="6.3942766189575195e-01" nType="0">
          <Node pos="l" depth="2" NCoef="0" IVar="-1" Cut="0.0000000000000000e+00" cType="1" res="1.6520575445611030e-04" rms="4.9657526612281799e-01" purity="5.0893121957778931e-01" nType="-99"/>
          <Node pos="r" depth="2" NCoef="0" IVar="-1" Cut="0.0000000000000000e+00" cType="1" res="2.7245845645666122e-02" rms="4.3862441182136536e-01" purity="7.3623889684677124e-01" nType="-99"/>
        </Node>
      </Node>
    </BinaryTree>
    <BinaryTree type="DecisionTree" boostWeight="1.0000000000000000e+00" itree="5">
      <Node pos="s" depth="0" NCoef="0" IVar="2" Cut="3.2194075584411621e+00" cType="1" res="-6.9692898541688919e-03" rms="4.7951623797416687e-01" purity="4.9966335296630859e-01" nType="0">
        <Node pos="l" depth="1" NCoef="0" IVar="2" Cut="2.1035449504852295e+00" cType="1" res="-1.6152735054492950e-01" rms="4.5056262612342834e-01" purity="3.0358168482780457e-01" nType="0">
          <Node pos="l" depth="2" NCoef="0" IVar="-1" Cut="0.0000000000000000e+00" cType="1" res="-2.8304344043135643e-02" rms="3.7557554244995117e-01" purity="1.7426988482475281e-01" nType="-99"/>
          <Node pos="r" depth="2" NCoef="0" IVar="-1" Cut="0.0000000000000000e+00" cType="1" res="-7.5928946025669575e-03" rms="4.8236596584320068e-01" purity="3.9738318324089050e-01" nType="-99"/>
        </Node>
        <Node pos="r" depth="1" NCoef="0" IVar="0" Cut="4.9175373077392578e+01" cType="1" res="1.4575746655464172e-01" rms="4.5783761143684387e-01" purity="6.9342166185379028e-01" nType="0">
          <Node pos="l" depth="2" NCoef="0" IVar="-1" Cut="0.0000000000000000e+00" cType="1" res="1.2565412558615208e-02" rms="4.7472476959228516e-01" purity="6.4828473329544067e-01" nType="-99"/>
          <Node pos="r" depth="2" NCoef="0" IVar="-1" Cut="0.0000000000000000e+00" cType="1" res="5.0056166946887970e-02" rms="3.7396702170372009e-01" purity="8.3062797784805298e-01" nType="-99"/>
        </Node>
      </Node>
    </BinaryTree>
    <BinaryTree type="DecisionTree" boostWeight="1.0000000000000000e+00" itree="6">
      <Node pos="s" depth="0" NCoef="0" IVar="2" Cut="2.7821087837219238e+00" cType="1" res="-1.1652040295302868e-02" rms="4.7544774413108826e-01" purity="4.9626979231834412e-01" nType="0">
        <Node pos="l" depth="1" NCoef="0" IVar="0" Cut="5.2719104766845703e+01" cType="1" res="-1.9864764809608459e-01" rms="4.2234760522842407e-01" purity="2.4165812134742737e-01" nType="0">
          <Node pos="l" depth="2" NCoef="0" IVar="-1" Cut="0.0000000000000000e+00" cType="1" res="-2.0723031833767891e-02" rms="3.9758154749870300e-01" purity="1.9962467253208160e-01" nType="-99"/>
          <Node pos="r" depth="2" NCoef="0" IVar="-1" Cut="0.0000000000000000e+00" cType="1" res="-8.3169422578066587e-04" rms="4.9648955464363098e-01" purity="4.7158610820770264e-01" nType="-99"/>
        </Node>
        <Node pos="r" depth="1" NCoef="0" IVar="0" Cut="2.7095115661621094e+01" cType="1" res="1.0072163492441177e-01" rms="4.7016817331314087e-01" purity="6.4927679300308228e-01" nType="0">
          <Node pos="l" depth="2" NCoef="0" IVar="-1" Cut="0.0000000000000000e+00" cType="1" res="3.1824326142668724e-03" rms="4.9081709980964661e-01" purity="5.6658947467803955e-01" nType="-99"/>
          <Node pos="r" depth="2" NCoef="0" IVar="-1" Cut="0.0000000000000000e+00" cType="1" res="2.5299709290266037e-02" rms="4.3101787567138672e-01" purity="7.4430692195892334e-01" nType="-99"/>
        </Node>
      </Node>
    </BinaryTree>
    <BinaryTree type="DecisionTree" boostWeight="1.0000000000000000e+00" itree="7">
      <Node pos="s" depth="0" NCoef="0" IVar="2" Cut="3.3796091079711914e+00" cType="1" res="-8.0501530319452286e-03" rms="4.7220769524574280e-01" purity="4.9993842840194702e-01" nType="0">
        <Node pos="l" depth="1" NCoef="0" IVar="2" Cut="1.9286189079284668e+00" cType="1" res="-1.3361494243144989e-01" rms="4.5449930429458618e-01" purity="3.2496494054794312e-01" nType="0">
          <Node pos="l" depth="2" NCoef="0" IVar="-1" Cut="0.0000000000000000e+00" cType="1" res="-2.4501832202076912e-02" rms="3.5830494761466980e-01" purity="1.5576587617397308e-01" nType="-99"/>
          <Node pos="r" depth="2" NCoef="0" IVar="-1" Cut="0.0000000000000000e+00" cType="1" res="-8.0740544945001602e-03" rms="4.8122459650039673e-01" purity="4.0753337740898132e-01" nType="-99"/>
        </Node>
        <Node pos="r" depth="1" NCoef="0" IVar="0" Cut="5.4678192138671875e+01" cType="1" res="1.4405435323715210e-01" rms="4.4791117310523987e-01" purity="7.1189475059509277e-01" nType="0">
          <Node pos="l" depth="2" NCoef="0" IVar="-1" Cut="0.0000000000000000e+00" cType="1" res="1.4936476014554501e-02" rms="4.6620133519172668e-01" purity="6.7216485738754272e-01" nType="-99"/>
          <Node pos="r" depth="2" NCoef="0" IVar="-1" Cut="0.0000000000000000e+00" cType="1" res="5.1379885524511337e-02" rms="3.5173967480659485e-01" purity="8.5445773601531982e-01" nType="-99"/>
        </Node>
      </Node>
    </BinaryTree>
    <BinaryTree type="DecisionTree" boostWeight="1.0000000000000000e+00" itree="8">
      <Node pos="s" depth="0" NCoef="0" IVar="2" Cut="2.5507574081420898e+00" cType="1" res="-1.0023611597716808e-02" rms="4.6929717063903809e-01" purity="5.0031507015228271e-01" nType="0">
        <Node pos="l" depth="1" NCoef="0" IVar="0" Cut="5.9591606140136719e+01" cType="1" res="-2.0221295952796936e-01" rms="4.0616738796234131e-01" purity="2.1727217733860016e-01" nType="0">
          <Node pos="l" depth="2" NCoef="0" IVar="-1" Cut="0.0000000000000000e+00" cType="1" res="-1.9942386075854301e-02" rms="3.8129663467407227e-01" purity="1.7847381532192230e-01" nType="-99"/>
          <Node pos="r" depth="2" NCoef="0" IVar="-1" Cut="0.0000000000000000e+00" cType="1" res="-1.7991414642892778e-04" rms="4.9713236093521118e-01" purity="4.7095310688018799e-01" nType="-99"/>
        </Node>
        <Node pos="r" depth="1" NCoef="0" IVar="2" Cut="3.9575338363647461e+00" cType="1" res="7.8160464763641357e-02" rms="4.6997281908988953e-01" purity="6.3018631935119629e-01" nType="0">
          <Node pos="l" depth="2" NCoef="0" IVar="-1" Cut="0.0000000000000000e+00" cType="1" res="1.2585410149767995e-03" rms="4.9074721336364746e-01" purity="5.3374230861663818e-01" nType="-99"/>
          <Node pos="r" depth="2" NCoef="0" IVar="-1" Cut="0.0000000000000000e+00" cType="1" res="2.5238201022148132e-02" rms="4.2150267958641052e-01" purity="7.6391071081161499e-01" nType="-99"/>
        </Node>
      </Node>
    </BinaryTree>
    <BinaryTree type="DecisionTree" boostWeight="1.0000000000000000e+00" itree="9">
      <Node pos="s" depth="0" NCoef="0" IVar="2" Cut="2.8576066493988037e+00" cType="1" res="-5.6330165825784206e-03" rms="4.6764543652534485e-01" purity="5.0650244951248169e-01" nType="0">
        <Node pos="l" depth="1" NCoef="0" IVar="0" Cut="5.2715145111083984e+01" cType="1" res="-1.5771935880184174e-01" rms="4.3187871575355530e-01" purity="2.6301458477973938e-01" nType="0">
          <Node pos="l" depth="2" NCoef="0" IVar="-1" Cut="0.0000000000000000e+00" cType="1" res="-1.9778996706008911e-02" rms="4.0982985496520996e-01" purity="2.1887499094009399e-01" nType="-99"/>
          <Node pos="r" depth="2" NCoef="0" IVar="-1" Cut="0.0000000000000000e+00" cType="1" res="3.8191978819668293e-03" rms="4.9573069810867310e-01" purity="5.0905537605285645e-01" nType="-99"/>
        </Node>
        <Node pos="r" depth="1" NCoef="0" IVar="0" Cut="2.4288236618041992e+01" cType="1" res="9.2873990535736084e-02" rms="4.6351444721221924e-01" purity="6.6421061754226685e-01" nType="0">
          <Node pos="l" depth="2" NCoef="0" IVar="-1" Cut="0.0000000000000000e+00" cType="1" res="2.9617515392601490e-03" rms="4.8767021298408508e-01" purity="5.8360004425048828e-01" nType="-99"/>
          <Node pos="r" depth="2" NCoef="0" IVar="-1" Cut="0.0000000000000000e+00" cType="1" res="2.2382671013474464e-02" rms="4.3191298842430115e-01" purity="7.4007171392440796e-01" nType="-99"/>
        </Node>
      </Node>
    </BinaryTree>
    <BinaryTree type="DecisionTree" boostWeight="1.0000000000000000e+00" itree="10">
      <Node pos="s" depth="0" NCoef="0" IVar="2" Cut="3.0182249546051025e+00" cType="1" res="-1.3281396590173244e-02" rms="4.6407473087310791e-01" purity="4.9797162413597107e-01" nType="0">
        <Node pos="l" depth="1" NCoef="0" IVar="2" Cut="1.9309980869293213e+00" cType="1" res="-1.4965544641017914e-01" rms="4.3378767371177673e-01" purity="2.7416741847991943e-01" nType="0">
          <Node pos="l" depth="2" NCoef="0" IVar="-1" Cut="0.0000000000000000e+00" cType="1" res="-1.6782412305474281e-02" rms="3.5713118314743042e-01" purity="1.5530635416507721e-01" nType="-99"/>
          <Node pos="r" depth="2" NCoef="0" IVar="-1" Cut="0.0000000000000000e+00" cType="1" res="-9.4801438972353935e-03" rms="4.6881994605064392e-01" purity="3.5471072793006897e-01" nType="-99"/>
        </Node>
        <Node pos="r" depth="1" NCoef="0" IVar="2" Cut="4.3359365463256836e+00" cType="1" res="9.5816031098365784e-02" rms="4.5862793922424316e-01" purity="6.7701208591461182e-01" nType="0">
          <Node pos="l" depth="2" NCoef="0" IVar="-1" Cut="0.0000000000000000e+00" cType="1" res="6.5503627993166447e-03" rms="4.7866696119308472e-01" purity="6.1687427759170532e-01" nType="-99"/>
          <Node pos="r" depth="2" NCoef="0" IVar="-1" Cut="0.0000000000000000e+00" cType="1" res="2.8221119195222855e-02" rms="4.0757074952125549e-01" purity="7.8651618957519531e-01" nType="-99"/>
        </Node>
      </Node>
    </BinaryTree>
    <BinaryTree type="DecisionTree" boostWeight="1.0000000000000000e+00" itree="11">
      <Node pos="s" depth="0" NCoef="0" IVar="2" Cut="3.2358491420745850e+00" cType="1" res="-1.6183219850063324e-02" rms="4.6200922131538391e-01" purity="4.9652594327926636e-01" nType="0">
        <Node pos="l" depth="1" NCoef="0" IVar="0" Cut="4.5970886230468750e+01" cType="1" res="-1.3017797470092773e-01" rms="4.4264715909957886e-01" purity="3.0079773068428040e-01" nType="0">
          <Node pos="l" depth="2" NCoef="0" IVar="-1" Cut="0.0000000000000000e+00" cType="1" res="-1.7858326435089111e-02" rms="4.2127242684364319e-01" purity="2.4939641356468201e-01" nType="-99"/>
          <Node pos="r" depth="2" NCoef="0" IVar="-1" Cut="0.0000000000000000e+00" cType="1" res="3.7181063089519739e-03" rms="4.8850509524345398e-01" purity="5.0959408283233643e-01" nType="-99"/>
        </Node>
        <Node pos="r" depth="1" NCoef="0" IVar="0" Cut="2.7441755294799805e+01" cType="1" res="9.8977856338024139e-02" rms="4.5250186324119568e-01" purity="6.9425678253173828e-01" nType="0">
          <Node pos="l" depth="2" NCoef="0" IVar="-1" Cut="0.0000000000000000e+00" cType="1" res="4.7139679081737995e-03" rms="4.8210525512695312e-01" purity="6.1807698011398315e-01" nType="-99"/>
          <Node pos="r" depth="2" NCoef="0" IVar="-1" Cut="0.0000000000000000e+00" cType="1" res="2.5905517861247063e-02" rms="4.0807721018791199e-01" purity="7.8134167194366455e-01" nType="-99"/>
        </Node>
      </Node>
    </BinaryTree>
    <BinaryTree type="DecisionTree" boostWeight="1.0000000000000000e+00" itree="12">
      <Node pos="s" depth="0" NCoef="0" IVar="2" Cut="3.1668052673339844e+00" cType="1" res="-1.2460677884519100e-02" rms="4.5914459228515625e-01" purity="4.9995034933090210e-01" nType="0">
        <Node pos="l" depth="1" NCoef="0" IVar="0" Cut="4.9335948944091797e+01" cType="1" res="-1.2819766998291016e-01" rms="4.3918532133102417e-01" purity="2.9195541143417358e-01" nType="0">
          <Node pos="l" depth="2" NCoef="0" IVar="-1" Cut="0.0000000000000000e+00" cType="1" res="-1.2668031267821789e-02" rms="4.1913792490959167e-01" purity="2.4368050694465637e-01" nType="-99"/>
          <Node pos="r" depth="2" NCoef="0" IVar="-1" Cut="0.0000000000000000e+00" cType="1" res="4.0107555687427521e-03" rms="4.9070140719413757e-01" purity="5.1817309856414795e-01" nType="-99"/>
        </Node>
        <Node pos="r" depth="1" NCoef="0" IVar="2" Cut="4.7375683784484863e+00" cType="1" res="9.6775189042091370e-02" rms="4.5073443651199341e-01" purity="6.9626200199127197e-01" nType="0">
          <Node pos="l" depth="2" NCoef="0" IVar="-1" Cut="0.0000000000000000e+00" cType="1" res="8.4013557061553001e-03" rms="4.6721467375755310e-01" purity="6.5452796220779419e-01" nType="-99"/>
          <Node pos="r" depth="2" NCoef="0" IVar="-1" Cut="0.0000000000000000e+00" cType="1" res="3.2480370253324509e-02" rms="3.8147646188735962e-01" purity="8.2240313291549683e-01" nType="-99"/>
        </Node>
      </Node>
    </BinaryTree>
    <BinaryTree type="DecisionTree" boostWeight="1.0000000000000000e+00" itree="13">
      <Node pos="s" depth="0" NCoef="0" IVar="2" Cut="2.3263309001922607e+00" cType="1" res="-1.1234465055167675e-02" rms="4.5881992578506470e-01" purity="5.0344073772430420e-01" nType="0">
        <Node pos="l" depth="1" NCoef="0" IVar="0" Cut="6.5413253784179688e+01" cType="1" res="-1.8486782908439636e-01" rms="3.8880264759063721e-01" purity="1.9683890044689178e-01" nType="0">
          <Node pos="l" depth="2" NCoef="0" IVar="-1" Cut="0.0000000000000000e+00" cType="1" res="-1.8884578719735146e-02" rms="3.6685186624526978e-01" purity="1.6274529695510864e-01" nType="-99"/>
          <Node pos="r" depth="2" NCoef="0" IVar="-1" Cut="0.0000000000000000e+00" cType="1" res="4.5414888300001621e-03" rms="4.9835181236267090e-01" purity="5.0097721815109253e-01" nType="-99"/>
        </Node>
        <Node pos="r" depth="1" NCoef="0" IVar="2" Cut="3.7003939151763916e+00" cType="1" res="4.9468345940113068e-02" rms="4.6587464213371277e-01" purity="6.1062967777252197e-01" nType="0">
          <Node pos="l" depth="2" NCoef="0" IVar="-1" Cut="0.0000000000000000e+00" cType="1" res="-6.4100383315235376e-04" rms="4.8596543073654175e-01" purity="4.9286419153213501e-01" nType="-99"/>
          <Node pos="r" depth="2" NCoef="0" IVar="-1" Cut="0.0000000000000000e+00" cType="1" res="1.4534640125930309e-02" rms="4.3630602955818176e-01" purity="7.3443210124969482e-01" nType="-99"/>
        </Node>
      </Node>
    </BinaryTree>
    <BinaryTree type="DecisionTree" boostWeight="1.0000000000000000e+00" itree="14">
      <Node pos="s" depth="0" NCoef="0" IVar="2" Cut="2.5983655452728271e+00" cType="1" res="-2.0399404689669609e-02" rms="4.5746633410453796e-01" purity="4.9379187822341919e-01" nType="0">
        <Node pos="l" depth="1" NCoef="0" IVar="0" Cut="4.3423336029052734e+01" cType="1" res="-1.5961730480194092e-01" rms="4.0499547123908997e-01" purity="2.2005365788936615e-01" nType="0">
          <Node pos="l" depth="2" NCoef="0" IVar="-1" Cut="0.0000000000000000e+00" cType="1" res="-1.7579670995473862e-02" rms="3.7484186887741089e-01" purity="1.7130766808986664e-01" nType="-99"/>
          <Node pos="r" depth="2" NCoef="0" IVar="-1" Cut="0.0000000000000000e+00" cType="1" res="-3.5623873118311167e-03" rms="4.8659130930900574e-01" purity="4.1583758592605591e-01" nType="-99"/>
        </Node>
        <Node pos="r" depth="1" NCoef="0" IVar="0" Cut="7.2550369262695312e+01" cType="1" res="4.7934733331203461e-02" rms="4.6616008877754211e-01" purity="6.2815439701080322e-01" nType="0">
          <Node pos="l" depth="2" NCoef="0" IVar="-1" Cut="0.0000000000000000e+00" cType="1" res="3.2485458068549633e-03" rms="4.7485065460205078e-01" purity="5.9834027290344238e-01" nType="-99"/>
          <Node pos="r" depth="2" NCoef="0" IVar="-1" Cut="0.0000000000000000e+00" cType="1" res="3.1553141772747040e-02" rms="3.7147656083106995e-01" purity="8.2946431636810303e-01" nType="-99"/>
        </Node>
      </Node>
    </BinaryTree>
    <BinaryTree type="DecisionTree" boostWeight="1.0000000000000000e+00" itree="15">
      <Node pos="s" depth="0" NCoef="0" IVar="2" Cut="2.9832630157470703e+00" cType="1" res="-1.3344103470444679e-02" rms="4.5585983991622925e-01" purity="5.0265544652938843e-01" nType="0">
        <Node pos="l" depth="1" NCoef="0" IVar="2" Cut="1.5403742790222168e+00" cType="1" res="-1.2320749461650848e-01" rms="4.3121170997619629e-01" purity="2.7298459410667419e-01" nType="0">
          <Node pos="l" depth="2" NCoef="0" IVar="-1" Cut="0.0000000000000000e+00" cType="1" res="-1.9935538992285728e-02" rms="3.2547959685325623e-01" purity="1.2653447687625885e-01" nType="-99"/>
          <Node pos="r" depth="2" NCoef="0" IVar="-1" Cut="0.0000000000000000e+00" cType="1" res="-9.6046421676874161e-03" rms="4.5666372776031494e-01" purity="3.2659855484962463e-01" nType="-99"/>
        </Node>
        <Node pos="r" depth="1" NCoef="0" IVar="2" Cut="4.8770356178283691e+00" cType="1" res="6.8124964833259583e-02" rms="4.5654597878456116e-01" purity="6.7296761274337769e-01" nType="0">
          <Node pos="l" depth="2" NCoef="0" IVar="-1" Cut="0.0000000000000000e+00" cType="1" res="5.7640573941171169e-03" rms="4.7046971321105957e-01" purity="6.3559728860855103e-01" nType="-99"/>
          <Node pos="r" depth="2" NCoef="0" IVar="-1" Cut="0.0000000000000000e+00" cType="1" res="3.0236789956688881e-02" rms="3.7321934103965759e-01" purity="8.3207643032073975e-01" nType="-99"/>
        </Node>
      </Node>
    </BinaryTree>
    <BinaryTree type="DecisionTree" boostWeight="1.0000000000000000e+00" itree="16">
      <Node pos="s" depth="0" NCoef="0" IVar="2" Cut="2.7821087837219238e+00" cType="1" res="-1.3188159093260765e-02" rms="4.5300406217575073e-01" purity="5.0198882818222046e-01" nType="0">
        <Node pos="l" depth="1" NCoef="0" IVar="0" Cut="4.5896503448486328e+01" cType="1" res="-1.3152398169040680e-01" rms="4.1618913412094116e-01" purity="2.4304062128067017e-01" nType="0">
          <Node pos="l" depth="2" NCoef="0" IVar="-1" Cut="0.0000000000000000e+00" cType="1" res="-1.4041895046830177e-02" rms="3.8829520344734192e-01" purity="1.9060209393501282e-01" nType="-99"/>
          <Node pos="r" depth="2" NCoef="0" IVar="-1" Cut="0.0000000000000000e+00" cType="1" res="3.9056977257132530e-03" rms="4.9208787083625793e-01" purity="4.7635921835899353e-01" nType="-99"/>
        </Node>
        <Node pos="r" depth="1" NCoef="0" IVar="2" Cut="4.7428927421569824e+00" cType="1" res="5.7666361331939697e-02" rms="4.5931199193000793e-01" purity="6.5703612565994263e-01" nType="0">
          <Node pos="l" depth="2" NCoef="0" IVar="-1" Cut="0.0000000000000000e+00" cType="1" res="4.0549100376665592e-03" rms="4.7478258609771729e-01" purity="6.1324876546859741e-01" nType="-99"/>
          <Node pos="r" depth="2" NCoef="0" IVar="-1" Cut="0.0000000000000000e+00" cType="1" res="2.8396777808666229e-02" rms="3.7690469622612000e-01" purity="8.2679295539855957e-01" nType="-99"/>
        </Node>
      </Node>
    </BinaryTree>
    <BinaryTree type="DecisionTree" boostWeight="1.0000000000000000e+00" itree="17">
      <Node pos="s" depth="0" NCoef="0" IVar="2" Cut="2.8426454067230225e+00" cType="1" res="-1.3628111220896244e-02" rms="4.5441272854804993e-01" purity="5.0388073921203613e-01" nType="0">
        <Node pos="l" depth="1" NCoef="0" IVar="2" Cut="1.8417911529541016e+00" cType="1" res="-1.1474715918302536e-01" rms="4.2555943131446838e-01" purity="2.5929668545722961e-01" nType="0">
          <Node pos="l" depth="2" NCoef="0" IVar="-1" Cut="0.0000000000000000e+00" cType="1" res="-2.0758351311087608e-02" rms="3.5692152380943298e-01" purity="1.5697185695171356e-01" nType="-99"/>
          <Node pos="r" depth="2" NCoef="0" IVar="-1" Cut="0.0000000000000000e+00" cType="1" res="-6.8148374557495117e-03" rms="4.5961987972259521e-01" purity="3.3014944195747375e-01" nType="-99"/>
        </Node>
        <Node pos="r" depth="1" NCoef="0" IVar="0" Cut="4.8468967437744141e+01" cType="1" res="4.9815732985734940e-02" rms="4.6041354537010193e-01" purity="6.5733695030212402e-01" nType="0">
          <Node pos="l" depth="2" NCoef="0" IVar="-1" Cut="0.0000000000000000e+00" cType="1" res="2.2370635997503996e-03" rms="4.7697654366493225e-01" purity="6.1057198047637939e-01" nType="-99"/>
          <Node pos="r" depth="2" NCoef="0" IVar="-1" Cut="0.0000000000000000e+00" cType="1" res="2.2903960198163986e-02" rms="3.9343148469924927e-01" purity="7.9810953140258789e-01" nType="-99"/>
        </Node>
      </Node>
    </BinaryTree>
    <BinaryTree type="DecisionTree" boostWeight="1.0000000000000000e+00" itree="18">
      <Node pos="s" depth="0" NCoef="0" IVar="2" Cut="2.5539448261260986e+00" cType="1" res="-1.3555397279560566e-02" rms="4.5116871595382690e-01" purity="5.0242066383361816e-01" nType="0">
        <Node pos="l" depth="1" NCoef="0" IVar="2" Cut="1.8734195232391357e+00" cType="1" res="-1.3727414608001709e-01" rms="4.0110528469085693e-01" purity="2.1739254891872406e-01" nType="0">
          <Node pos="l" depth="2" NCoef="0" IVar="-1" Cut="0.0000000000000000e+00" cType="1" res="-1.7810549587011337e-02" rms="3.4276267886161804e-01" purity="1.4448140561580658e-01" nType="-99"/>
          <Node pos="r" depth="2" NCoef="0" IVar="-1" Cut="0.0000000000000000e+00" cType="1" res="-5.3201518021523952e-03" rms="4.4730085134506226e-01" purity="2.9608121514320374e-01" nType="-99"/>
        </Node>
        <Node pos="r" depth="1" NCoef="0" IVar="0" Cut="2.7357948303222656e+01" cType="1" res="4.3722037225961685e-02" rms="4.6145409345626831e-01" purity="6.3437867164611816e-01" nType="0">
          <Node pos="l" depth="2" NCoef="0" IVar="-1" Cut="0.0000000000000000e+00" cType="1" res="-6.0295552248135209e-04" rms="4.8144385218620300e-01" purity="5.5132663249969482e-01" nType="-99"/>
          <Node pos="r" depth="2" NCoef="0" IVar="-1" Cut="0.0000000000000000e+00" cType="1" res="1.6354519873857498e-02" rms="4.2884507775306702e-01" purity="7.3361963033676147e-01" nType="-99"/>
        </Node>
      </Node>
    </BinaryTree>
    <BinaryTree type="DecisionTree" boostWeight="1.0000000000000000e+00" itree="19">
      <Node pos="s" depth="0" NCoef="0" IVar="2" Cut="2.0468268394470215e+00" cType="1" res="-1.6960084438323975e-02" rms="4.5175346732139587e-01" purity="4.9807059764862061e-01" nType="0">
        <Node pos="l" depth="1" NCoef="0" IVar="2" Cut="7.8632014989852905e-01" cType="1" res="-1.6776932775974274e-01" rms="3.6544227600097656e-01" purity="1.6855731606483459e-01" nType="0">
          <Node pos="l" depth="2" NCoef="0" IVar="-1" Cut="0.0000000000000000e+00" cType="1" res="-1.2099679559469223e-02" rms="2.5019845366477966e-01" purity="7.1414813399314880e-02" nType="-99"/>
          <Node pos="r" depth="2" NCoef="0" IVar="-1" Cut="0.0000000000000000e+00" cType="1" res="-1.7743438482284546e-02" rms="3.8722538948059082e-01" purity="1.9489245116710663e-01" nType="-99"/>
        </Node>
        <Node pos="r" depth="1" NCoef="0" IVar="0" Cut="2.9811109542846680e+01" cType="1" res="2.1214909851551056e-02" rms="4.6338006854057312e-01" purity="5.8148169517517090e-01" nType="0">
          <Node pos="l" depth="2" NCoef="0" IVar="-1" Cut="0.0000000000000000e+00" cType="1" res="-2.7555366978049278e-03" rms="4.7489592432975769e-01" purity="5.0131934881210327e-01" nType="-99"/>
          <Node pos="r" depth="2" NCoef="0" IVar="-1" Cut="0.0000000000000000e+00" cType="1" res="1.2581122107803822e-02" rms="4.3785056471824646e-01" purity="6.9846820831298828e-01" nType="-99"/>
        </Node>
      </Node>
    </BinaryTree>
    <BinaryTree type="DecisionTree" boostWeight="1.0000000000000000e+00" itree="20">
      <Node pos="s" depth="0" NCoef="0" IVar="2" Cut="2.8304474353790283e+00" cType="1" res="-1.5525337308645248e-02" rms="4.4925665855407715e-01" purity="4.9954023957252502e-01" nType="0">
        <Node pos="l" depth="1" NCoef="0" IVar="0" Cut="8.9351699829101562e+01" cType="1" res="-1.1525642871856689e-01" rms="4.1600614786148071e-01" purity="2.4573396146297455e-01" nType="0">
          <Node pos="l" depth="2" NCoef="0" IVar="-1" Cut="0.0000000000000000e+00" cType="1" res="-1.1777676641941071e-02" rms="4.0641540288925171e-01" purity="2.2364559769630432e-01" nType="-99"/>
          <Node pos="r" depth="2" NCoef="0" IVar="-1" Cut="0.0000000000000000e+00" cType="1" res="7.8718801960349083e-03" rms="4.8768770694732666e-01" purity="5.6832599639892578e-01" nType="-99"/>
        </Node>
        <Node pos="r" depth="1" NCoef="0" IVar="1" Cut="3.1658289432525635e+00" cType="1" res="4.8767704516649246e-02" rms="4.5807555317878723e-01" purity="6.6316002607345581e-01" nType="0">
          <Node pos="l" depth="2" NCoef="0" IVar="-1" Cut="0.0000000000000000e+00" cType="1" res="9.6069071441888809e-03" rms="4.5121812820434570e-01" purity="6.8387734889984131e-01" nType="-99"/>
          <Node pos="r" depth="2" NCoef="0" IVar="-1" Cut="0.0000000000000000e+00" cType="1" res="-6.0275332070887089e-03" rms="4.9214908480644226e-01" purity="4.9647247791290283e-01" nType="-99"/>
        </Node>
      </Node>
    </BinaryTree>
    <BinaryTree type="DecisionTree" boostWeight="1.0000000000000000e+00" itree="21">
      <Node pos="s" depth="0" NCoef="0" IVar="2" Cut="3.5348172187805176e+00" cType="1" res="-1.8319690600037575e-02" rms="4.4938394427299500e-01" purity="4.9807384610176086e-01" nType="0">
        <Node pos="l" depth="1" NCoef="0" IVar="0" Cut="4.9335948944091797e+01" cType="1" res="-7.8062519431114197e-02" rms="4.4668114185333252e-01" purity="3.4559208154678345e-01" nType="0">
          <Node pos="l" depth="2" NCoef="0" IVar="-1" Cut="0.0000000000000000e+00" cType="1" res="-1.2649384327232838e-02" rms="4.3441054224967957e-01" purity="2.9583325982093811e-01" nType="-99"/>
          <Node pos="r" depth="2" NCoef="0" IVar="-1" Cut="0.0000000000000000e+00" cType="1" res="5.9293536469340324e-03" rms="4.7652885317802429e-01" purity="5.5497753620147705e-01" nType="-99"/>
        </Node>
        <Node pos="r" depth="1" NCoef="0" IVar="0" Cut="8.7978294372558594e+01" cType="1" res="6.8235673010349274e-02" rms="4.3908071517944336e-01" purity="7.1898937225341797e-01" nType="0">
          <Node pos="l" depth="2" NCoef="0" IVar="-1" Cut="0.0000000000000000e+00" cType="1" res="6.6904565319418907e-03" rms="4.5168501138687134e-01" purity="6.9680547714233398e-01" nType="-99"/>
          <Node pos="r" depth="2" NCoef="0" IVar="-1" Cut="0.0000000000000000e+00" cType="1" res="5.2576676011085510e-02" rms="2.6012706756591797e-01" purity="9.2718511819839478e-01" nType="-99"/>
        </Node>
      </Node>
    </BinaryTree>
    <BinaryTree type="DecisionTree" boostWeight="1.0000000000000000e+00" itree="22">
      <Node pos="s" depth="0" NCoef="0" IVar="2" Cut="2.5507574081420898e+00" cType="1" res="-1.7290486022830009e-02" rms="4.4987446069717407e-01" purity="4.9945041537284851e-01" nType="0">
        <Node pos="l" depth="1" NCoef="0" IVar="0" Cut="6.5473205566406250e+01" cType="1" res="-1.1459191143512726e-01" rms="4.0268322825431824e-01" purity="2.2135655581951141e-01" nType="0">
          <Node pos="l" depth="2" NCoef="0" IVar="-1" Cut="0.0000000000000000e+00" cType="1" res="-1.2201733887195587e-02" rms="3.8653966784477234e-01" purity="1.8895149230957031e-01" nType="-99"/>
          <Node pos="r" depth="2" NCoef="0" IVar="-1" Cut="0.0000000000000000e+00" cType="1" res="7.5959586538374424e-03" rms="4.9473547935485840e-01" purity="5.0969028472900391e-01" nType="-99"/>
        </Node>
        <Node pos="r" depth="1" NCoef="0" IVar="0" Cut="4.9379795074462891e+01" cType="1" res="2.6774967089295387e-02" rms="4.6301004290580750e-01" purity="6.2539231777191162e-01" nType="0">
          <Node pos="l" depth="2" NCoef="0" IVar="-1" Cut="0.0000000000000000e+00" cType="1" res="2.8502359054982662e-04" rms="4.7721269726753235e-01" purity="5.7671731710433960e-01" nType="-99"/>
          <Node pos="r" depth="2" NCoef="0" IVar="-1" Cut="0.0000000000000000e+00" cType="1" res="1.7430922016501427e-02" rms="4.0332123637199402e-01" purity="7.8398275375366211e-01" nType="-99"/>
        </Node>
      </Node>
    </BinaryTree>
    <BinaryTree type="DecisionTree" boostWeight="1.0000000000000000e+00" itree="23">
      <Node pos="s" depth="0" NCoef="0" IVar="2" Cut="3.6144964694976807e+00" cType="1" res="-1.8101075664162636e-02" rms="4.4724664092063904e-01" purity="4.9740472435951233e-01" nType="0">
        <Node pos="l" depth="1" NCoef="0" IVar="0" Cut="2.7128812789916992e+01" cType="1" res="-7.0529900491237640e-02" rms="4.4703304767608643e-01" purity="3.5419759154319763e-01" nType="0">
          <Node pos="l" depth="2" NCoef="0" IVar="-1" Cut="0.0000000000000000e+00" cType="1" res="-1.3268249109387398e-02" rms="4.2501789331436157e-01" purity="2.7448779344558716e-01" nType="-99"/>
          <Node pos="r" depth="2" NCoef="0" IVar="-1" Cut="0.0000000000000000e+00" cType="1" res="-3.5680033033713698e-04" rms="4.6973270177841187e-01" purity="4.7177532315254211e-01" nType="-99"/>
        </Node>
        <Node pos="r" depth="1" NCoef="0" IVar="2" Cut="4.3360819816589355e+00" cType="1" res="6.6128619015216827e-02" rms="4.3454083800315857e-01" purity="7.2747457027435303e-01" nType="0">
          <Node pos="l" depth="2" NCoef="0" IVar="-1" Cut="0.0000000000000000e+00" cType="1" res="2.3645176552236080e-03" rms="4.6495833992958069e-01" purity="6.5723651647567749e-01" nType="-99"/>
          <Node pos="r" depth="2" NCoef="0" IVar="-1" Cut="0.0000000000000000e+00" cType="1" res="1.8783599138259888e-02" rms="3.9898481965065002e-01" purity="7.9475104808807373e-01" nType="-99"/>
        </Node>
      </Node>
    </BinaryTree>
    <BinaryTree type="DecisionTree" boostWeight="1.0000000000000000e+00" itree="24">
      <Node pos="s" depth="0" NCoef="0" IVar="2" Cut="2.1374104022979736e+00" cType="1" res="-1.6596134752035141e-02" rms="4.4628372788429260e-01" purity="4.9647819995880127e-01" nType="0">
        <Node pos="l" depth="1" NCoef="0" IVar="2" Cut="8.6381280422210693e-01" cType="1" res="-1.4246049523353577e-01" rms="3.6954212188720703e-01" purity="1.7363634705543518e-01" nType="0">
          <Node pos="l" depth="2" NCoef="0" IVar="-1" Cut="0.0000000000000000e+00" cType="1" res="-8.6694369092583656e-03" rms="2.7953600883483887e-01" purity="8.8057488203048706e-02" nType="-99"/>
          <Node pos="r" depth="2" NCoef="0" IVar="-1" Cut="0.0000000000000000e+00" cType="1" res="-1.4631597325205803e-02" rms="3.8893151283264160e-01" purity="1.9906446337699890e-01" nType="-99"/>
        </Node>
        <Node pos="r" depth="1" NCoef="0" IVar="0" Cut="8.2032516479492188e+01" cType="1" res="1.9111178815364838e-02" rms="4.5952311158180237e-01" purity="5.8806735277175903e-01" nType="0">
          <Node pos="l" depth="2" NCoef="0" IVar="-1" Cut="0.0000000000000000e+00" cType="1" res="5.4281129268929362e-04" rms="4.6665632724761963e-01" purity="5.6122130155563354e-01" nType="-99"/>
          <Node pos="r" depth="2" NCoef="0" IVar="-1" Cut="0.0000000000000000e+00" cType="1" res="3.0725613236427307e-02" rms="3.6223927140235901e-01" purity="8.3343964815139771e-01" nType="-99"/>
        </Node>
      </Node>
    </BinaryTree>
    <BinaryTree type="DecisionTree" boostWeight="1.0000000000000000e+00" itree="25">
      <Node pos="s" depth="0" NCoef="0" IVar="2" Cut="2.0468268394470215e+00" cType="1" res="-1.2009196914732456e-02" rms="4.4458383321762085e-01" purity="5.0390022993087769e-01" nType="0">
        <Node pos="l" depth="1" NCoef="0" IVar="0" Cut="2.6479728698730469e+01" cType="1" res="-1.3904862105846405e-01" rms="3.6329990625381470e-01" purity="1.6699582338333130e-01" nType="0">
          <Node pos="l" depth="2" NCoef="0" IVar="-1" Cut="0.0000000000000000e+00" cType="1" res="-1.8415737897157669e-02" rms="3.1501927971839905e-01" purity="1.1201501637697220e-01" nType="-99"/>
          <Node pos="r" depth="2" NCoef="0" IVar="-1" Cut="0.0000000000000000e+00" cType="1" res="-1.0269206948578358e-02" rms="4.2932000756263733e-01" purity="2.6412063837051392e-01" nType="-99"/>
        </Node>
        <Node pos="r" depth="1" NCoef="0" IVar="2" Cut="3.3075556755065918e+00" cType="1" res="1.9406875595450401e-02" rms="4.5707333087921143e-01" purity="5.8721458911895752e-01" nType="0">
          <Node pos="l" depth="2" NCoef="0" IVar="-1" Cut="0.0000000000000000e+00" cType="1" res="-4.0013645775616169e-03" rms="4.7240987420082092e-01" purity="4.0583854913711548e-01" nType="-99"/>
          <Node pos="r" depth="2" NCoef="0" IVar="-1" Cut="0.0000000000000000e+00" cType="1" res="7.3364856652915478e-03" rms="4.4289261102676392e-01" purity="7.0729124546051025e-01" nType="-99"/>
        </Node>
      </Node>
    </BinaryTree>
    <BinaryTree type="DecisionTree" boostWeight="1.0000000000000000e+00" itree="26">
      <Node pos="s" depth="0" NCoef="0" IVar="2" Cut="1.8171221017837524e+00" cType="1" res="-1.4442677609622478e-02" rms="4.4492447376251221e-01" purity="4.9997031688690186e-01" nType="0">
        <Node pos="l" depth="1" NCoef="0" IVar="2" Cut="9.9867635965347290e-01" cType="1" res="-1.5306463837623596e-01" rms="3.4412279725074768e-01" purity="1.4521765708923340e-01" nType="0">
          <Node pos="l" depth="2" NCoef="0" IVar="-1" Cut="0.0000000000000000e+00" cType="1" res="-1.1935855261981487e-02" rms="2.8218704462051392e-01" purity="8.9985504746437073e-02" nType="-99"/>
          <Node pos="r" depth="2" NCoef="0" IVar="-1" Cut="0.0000000000000000e+00" cType="1" res="-1.5056656673550606e-02" rms="3.7118029594421387e-01" purity="1.7706686258316040e-01" nType="-99"/>
        </Node>
        <Node pos="r" depth="1" NCoef="0" IVar="2" Cut="3.3052148818969727e+00" cType="1" res="1.2107511982321739e-02" rms="4.5695313811302185e-01" purity="5.6791585683822632e-01" nType="0">
          <Node pos="l" depth="2" NCoef="0" IVar="-1" Cut="0.0000000000000000e+00" cType="1" res="-4.0519200265407562e-03" rms="4.6856832504272461e-01" purity="3.8824850320816040e-01" nType="-99"/>
          <Node pos="r" depth="2" NCoef="0" IVar="-1" Cut="0.0000000000000000e+00" cType="1" res="6.5867500379681587e-03" rms="4.4426867365837097e-01" purity="7.0463246107101440e-01" nType="-99"/>
        </Node>
      </Node>
    </BinaryTree>
    <BinaryTree type="DecisionTree" boostWeight="1.0000000000000000e+00" itree="27">
      <Node pos="s" depth="0" NCoef="0" IVar="2" Cut="3.0752308368682861e+00" cType="1" res="-1.5300034545361996e-02" rms="4.4393554329872131e-01" purity="4.9859637022018433e-01" nType="0">
        <Node pos="l" depth="1" NCoef="0" IVar="0" Cut="4.9597774505615234e+01" cType="1" res="-7.7664256095886230e-02" rms="4.2812991142272949e-01" purity="2.8417351841926575e-01" nType="0">
          <Node pos="l" depth="2" NCoef="0" IVar="-1" Cut="0.0000000000000000e+00" cType="1" res="-9.8904063925147057e-03" rms="4.1222351789474487e-01" purity="2.3731642961502075e-01" nType="-99"/>
          <Node pos="r" depth="2" NCoef="0" IVar="-1" Cut="0.0000000000000000e+00" cType="1" res="3.5620380658656359e-03" rms="4.8015215992927551e-01" purity="5.0008559226989746e-01" nType="-99"/>
        </Node>
        <Node pos="r" depth="1" NCoef="0" IVar="1" Cut="-3.7056040763854980e+00" cType="1" res="3.7795420736074448e-02" rms="4.5020368695259094e-01" purity="6.8115097284317017e-01" nType="0">
          <Node pos="l" depth="2" NCoef="0" IVar="-1" Cut="0.0000000000000000e+00" cType="1" res="-6.4863055013120174e-03" rms="4.9058297276496887e-01" purity="4.8698800802230835e-01" nType="-99"/>
          <Node pos="r" depth="2" NCoef="0" IVar="-1" Cut="0.0000000000000000e+00" cType="1" res="7.9949973151087761e-03" rms="4.4543895125389099e-01" purity="6.9460076093673706e-01" nType="-99"/>
        </Node>
      </Node>
    </BinaryTree>
    <BinaryTree type="DecisionTree" boostWeight="1.0000000000000000e+00" itree="28">
      <Node pos="s" depth="0" NCoef="0" IVar="2" Cut="2.3520295619964600e+00" cType="1" res="-1.5808025375008583e-02" rms="4.4358530640602112e-01" purity="5.0066077709197998e-01" nType="0">
        <Node pos="l" depth="1" NCoef="0" IVar="2" Cut="1.0292726755142212e+00" cType="1" res="-1.1347261071205139e-01" rms="3.8258919119834900e-01" purity="1.9264991581439972e-01" nType="0">
          <Node pos="l" depth="2" NCoef="0" IVar="-1" Cut="0.0000000000000000e+00" cType="1" res="-1.6027063131332397e-02" rms="2.9495298862457275e-01" purity="1.0075262188911438e-01" nType="-99"/>
          <Node pos="r" depth="2" NCoef="0" IVar="-1" Cut="0.0000000000000000e+00" cType="1" res="-1.2721299193799496e-02" rms="4.0152204036712646e-01" purity="2.1911731362342834e-01" nType="-99"/>
        </Node>
        <Node pos="r" depth="1" NCoef="0" IVar="2" Cut="4.7567906379699707e+00" cType="1" res="1.9090468063950539e-02" rms="4.5841985940933228e-01" purity="6.1072224378585815e-01" nType="0">
          <Node pos="l" depth="2" NCoef="0" IVar="-1" Cut="0.0000000000000000e+00" cType="1" res="1.6385928029194474e-04" rms="4.7109359502792358e-01" purity="5.6634569168090820e-01" nType="-99"/>
          <Node pos="r" depth="2" NCoef="0" IVar="-1" Cut="0.0000000000000000e+00" cType="1" res="1.7263069748878479e-02" rms="3.8216838240623474e-01" purity="8.2002413272857666e-01" nType="-99"/>
        </Node>
      </Node>
    </BinaryTree>
    <BinaryTree type="DecisionTree" boostWeight="1.0000000000000000e+00" itree="29">
      <Node pos="s" depth="0" NCoef="0" IVar="2" Cut="1.9603689908981323e+00" cType="1" res="-1.5082933008670807e-02" rms="4.4322192668914795e-01" purity="4.9899938702583313e-01" nType="0">
        <Node pos="l" depth="1" NCoef="0" IVar="2" Cut="8.2070159912109375e-01" cType="1" res="-1.3029849529266357e-01" rms="3.5121056437492371e-01" purity="1.5402968227863312e-01" nType="0">
          <Node pos="l" depth="2" NCoef="0" IVar="-1" Cut="0.0000000000000000e+00" cType="1" res="-1.1896102689206600e-02" rms="2.5294896960258484e-01" purity="7.2918079793453217e-02" nType="-99"/>
          <Node pos="r" depth="2" NCoef="0" IVar="-1" Cut="0.0000000000000000e+00" cType="1" res="-1.4351570047438145e-02" rms="3.7584483623504639e-01" purity="1.8274156749248505e-01" nType="-99"/>
        </Node>
        <Node pos="r" depth="1" NCoef="0" IVar="0" Cut="4.9211345672607422e+01" cType="1" res="1.0488750413060188e-02" rms="4.5724073052406311e-01" purity="5.7556420564651489e-01" nType="0">
          <Node pos="l" depth="2" NCoef="0" IVar="-1" Cut="0.0000000000000000e+00" cType="1" res="-1.4661684399470687e-03" rms="4.6771427989006042e-01" purity="5.2174222469329834e-01" nType="-99"/>
          <Node pos="r" depth="2" NCoef="0" IVar="-1" Cut="0.0000000000000000e+00" cType="1" res="1.6372157260775566e-02" rms="4.0952196717262268e-01" purity="7.6084274053573608e-01" nType="-99"/>
        </Node>
      </Node>
    </BinaryTree>
    <BinaryTree type="DecisionTree" boostWeight="1.0000000000000000e+00" itree="30">
      <Node pos="s" depth="0" NCoef="0" IVar="2" Cut="1.4506627321243286e+00" cType="1" res="-1.6359252855181694e-02" rms="4.4390448927879333e-01" purity="4.9867162108421326e-01" nType="0">
        <Node pos="l" depth="1" NCoef="0" IVar="2" Cut="8.7438732385635376e-01" cType="1" res="-1.6264808177947998e-01" rms="3.1135007739067078e-01" purity="1.1537686735391617e-01" nType="0">
          <Node pos="l" depth="2" NCoef="0" IVar="-1" Cut="0.0000000000000000e+00" cType="1" res="-1.1068349704146385e-02" rms="2.6498556137084961e-01" purity="7.9723000526428223e-02" nType="-99"/>
          <Node pos="r" depth="2" NCoef="0" IVar="-1" Cut="0.0000000000000000e+00" cType="1" res="-1.8852157518267632e-02" rms="3.4654173254966736e-01" purity="1.5023750066757202e-01" nType="-99"/>
        </Node>
        <Node pos="r" depth="1" NCoef="0" IVar="0" Cut="2.7395814895629883e+01" cType="1" res="6.0036563081666827e-04" rms="4.5374974608421326e-01" purity="5.4310792684555054e-01" nType="0">
          <Node pos="l" depth="2" NCoef="0" IVar="-1" Cut="0.0000000000000000e+00" cType="1" res="-3.8524703122675419e-03" rms="4.5973280072212219e-01" purity="4.5557743310928345e-01" nType="-99"/>
          <Node pos="r" depth="2" NCoef="0" IVar="-1" Cut="0.0000000000000000e+00" cType="1" res="7.2427028790116310e-03" rms="4.4163596630096436e-01" purity="6.5549290180206299e-01" nType="-99"/>
        </Node>
      </Node>
    </BinaryTree>
    <BinaryTree type="DecisionTree" boostWeight="1.0000000000000000e+00" itree="31">
      <Node pos="s" depth="0" NCoef="0" IVar="2" Cut="3.5694308280944824e+00" cType="1" res="-1.2649129144847393e-02" rms="4.4024169445037842e-01" purity="5.0054097175598145e-01" nType="0">
        <Node pos="l" depth="1" NCoef="0" IVar="0" Cut="2.4704517364501953e+01" cType="1" res="-5.6710153818130493e-02" rms="4.4007888436317444e-01" purity="3.4740215539932251e-01" nType="0">
          <Node pos="l" depth="2" NCoef="0" IVar="-1" Cut="0.0000000000000000e+00" cType="1" res="-1.1201616376638412e-02" rms="4.1675800085067749e-01" purity="2.6212823390960693e-01" nType="-99"/>
          <Node pos="r" depth="2" NCoef="0" IVar="-1" Cut="0.0000000000000000e+00" cType="1" res="2.6750940014608204e-04" rms="4.6252515912055969e-01" purity="4.5985794067382812e-01" nType="-99"/>
        </Node>
        <Node pos="r" depth="1" NCoef="0" IVar="2" Cut="5.0853300094604492e+00" cType="1" res="5.4371077567338943e-02" rms="4.3195608258247375e-01" purity="7.3347681760787964e-01" nType="0">
          <Node pos="l" depth="2" NCoef="0" IVar="-1" Cut="0.0000000000000000e+00" cType="1" res="6.3476269133388996e-03" rms="4.4589954614639282e-01" purity="7.0653009414672852e-01" nType="-99"/>
          <Node pos="r" depth="2" NCoef="0" IVar="-1" Cut="0.0000000000000000e+00" cType="1" res="2.2843377664685249e-02" rms="3.6961239576339722e-01" purity="8.3568912744522095e-01" nType="-99"/>
        </Node>
      </Node>
    </BinaryTree>
    <BinaryTree type="DecisionTree" boostWeight="1.0000000000000000e+00" itree="32">
      <Node pos="s" depth="0" NCoef="0" IVar="2" Cut="2.9832630157470703e+00" cType="1" res="-1.2923577800393105e-02" rms="4.4147223234176636e-01" purity="5.0034582614898682e-01" nType="0">
        <Node pos="l" depth="1" NCoef="0" IVar="0" Cut="2.9860425949096680e+01" cType="1" res="-7.0131599903106689e-02" rms="4.2186042666435242e-01" purity="2.6868924498558044e-01" nType="0">
          <Node pos="l" depth="2" NCoef="0" IVar="-1" Cut="0.0000000000000000e+00" cType="1" res="-9.6081830561161041e-03" rms="3.9250308275222778e-01" purity="2.0269785821437836e-01" nType="-99"/>
          <Node pos="r" depth="2" NCoef="0" IVar="-1" Cut="0.0000000000000000e+00" cType="1" res="-4.3445610208436847e-04" rms="4.6734142303466797e-01" purity="3.9828905463218689e-01" nType="-99"/>
        </Node>
        <Node pos="r" depth="1" NCoef="0" IVar="1" Cut="-3.2280516624450684e+00" cType="1" res="3.0545990914106369e-02" rms="4.5098420977592468e-01" purity="6.7637038230895996e-01" nType="0">
          <Node pos="l" depth="2" NCoef="0" IVar="-1" Cut="0.0000000000000000e+00" cType="1" res="-5.4368050768971443e-03" rms="4.8850795626640320e-01" purity="5.3100889921188354e-01" nType="-99"/>
          <Node pos="r" depth="2" NCoef="0" IVar="-1" Cut="0.0000000000000000e+00" cType="1" res="6.1909486539661884e-03" rms="4.4532003998756409e-01" purity="6.9285112619400024e-01" nType="-99"/>
        </Node>
      </Node>
    </BinaryTree>
    <BinaryTree type="DecisionTree" boostWeight="1.0000000000000000e+00" itree="33">
      <Node pos="s" depth="0" NCoef="0" IVar="2" Cut="2.0468268394470215e+00" cType="1" res="-1.5054103918373585e-02" rms="4.4189780950546265e-01" purity="4.9801972508430481e-01" nType="0">
        <Node pos="l" depth="1" NCoef="0" IVar="2" Cut="7.8629827499389648e-01" cType="1" res="-1.1268649995326996e-01" rms="3.5834437608718872e-01" purity="1.6243095695972443e-01" nType="0">
          <Node pos="l" depth="2" NCoef="0" IVar="-1" Cut="0.0000000000000000e+00" cType="1" res="-9.8916795104742050e-03" rms="2.6477056741714478e-01" purity="7.9378150403499603e-02" nType="-99"/>
          <Node pos="r" depth="2" NCoef="0" IVar="-1" Cut="0.0000000000000000e+00" cType="1" res="-1.2255414389073849e-02" rms="3.7764558196067810e-01" purity="1.8635499477386475e-01" nType="-99"/>
        </Node>
        <Node pos="r" depth="1" NCoef="0" IVar="0" Cut="2.9773242950439453e+01" cType="1" res="9.6376491710543633e-03" rms="4.5734369754791260e-01" purity="5.8289200067520142e-01" nType="0">
          <Node pos="l" depth="2" NCoef="0" IVar="-1" Cut="0.0000000000000000e+00" cType="1" res="-2.2914051078259945e-03" rms="4.6993702650070190e-01" purity="5.0184583663940430e-01" nType="-99"/>
          <Node pos="r" depth="2" NCoef="0" IVar="-1" Cut="0.0000000000000000e+00" cType="1" res="9.7244353964924812e-03" rms="4.3479055166244507e-01" purity="6.9944924116134644e-01" nType="-99"/>
        </Node>
      </Node>
    </BinaryTree>
    <BinaryTree type="DecisionTree" boostWeight="1.0000000000000000e+00" itree="34">
      <Node pos="s" depth="0" NCoef="0" IVar="2" Cut="2.0468268394470215e+00" cType="1" res="-1.0539377108216286e-02" rms="4.4009348750114441e-01" purity="5.0183141231536865e-01" nType="0">
        <Node pos="l" depth="1" NCoef="0" IVar="2" Cut="7.8629827499389648e-01" cType="1" res="-1.0550254583358765e-01" rms="3.6073899269104004e-01" purity="1.6531814634799957e-01" nType="0">
          <Node pos="l" depth="2" NCoef="0" IVar="-1" Cut="0.0000000000000000e+00" cType="1" res="-9.3248784542083740e-03" rms="2.5476002693176270e-01" purity="7.1645058691501617e-02" nType="-99"/>
          <Node pos="r" depth="2" NCoef="0" IVar="-1" Cut="0.0000000000000000e+00" cType="1" res="-1.1712852865457535e-02" rms="3.8200411200523376e-01" purity="1.9246959686279297e-01" nType="-99"/>
        </Node>
        <Node pos="r" depth="1" NCoef="0" IVar="0" Cut="2.7174968719482422e+01" cType="1" res="1.3166123069822788e-02" rms="4.5467898249626160e-01" purity="5.8583468198776245e-01" nType="0">
          <Node pos="l" depth="2" NCoef="0" IVar="-1" Cut="0.0000000000000000e+00" cType="1" res="-2.2716992534697056e-03" rms="4.6758824586868286e-01" purity="4.9554359912872314e-01" nType="-99"/>
          <Node pos="r" depth="2" NCoef="0" IVar="-1" Cut="0.0000000000000000e+00" cType="1" res="7.9426206648349762e-03" rms="4.3467408418655396e-01" purity="6.9775646924972534e-01" nType="-99"/>
        </Node>
      </Node>
    </BinaryTree>
    <BinaryTree type="DecisionTree" boostWeight="1.0000000000000000e+00" itree="35">
      <Node pos="s" depth="0" NCoef="0" IVar="2" Cut="3.2221608161926270e+00" cType="1" res="-1.2117342092096806e-02" rms="4.4097173213958740e-01" purity="5.0319093465805054e-01" nType="0">
        <Node pos="l" depth="1" NCoef="0" IVar="0" Cut="8.9274642944335938e+01" cType="1" res="-5.7865895330905914e-02" rms="4.3219274282455444e-01" purity="3.0370745062828064e-01" nType="0">
          <Node pos="l" depth="2" NCoef="0" IVar="-1" Cut="0.0000000000000000e+00" cType="1" res="-8.1814881414175034e-03" rms="4.2690366506576538e-01" purity="2.8019106388092041e-01" nType="-99"/>
          <Node pos="r" depth="2" NCoef="0" IVar="-1" Cut="0.0000000000000000e+00" cType="1" res="2.2069120779633522e-02" rms="4.6280419826507568e-01" purity="6.6416639089584351e-01" nType="-99"/>
        </Node>
        <Node pos="r" depth="1" NCoef="0" IVar="2" Cut="4.8208017349243164e+00" cType="1" res="3.2734513282775879e-02" rms="4.4486823678016663e-01" purity="6.9876438379287720e-01" nType="0">
          <Node pos="l" depth="2" NCoef="0" IVar="-1" Cut="0.0000000000000000e+00" cType="1" res="2.0270859822630882e-03" rms="4.6234232187271118e-01" purity="6.5973025560379028e-01" nType="-99"/>
          <Node pos="r" depth="2" NCoef="0" IVar="-1" Cut="0.0000000000000000e+00" cType="1" res="1.7124881967902184e-02" rms="3.7401646375656128e-01" purity="8.3011043071746826e-01" nType="-99"/>
        </Node>
      </Node>
    </BinaryTree>
    <BinaryTree type="DecisionTree" boostWeight="1.0000000000000000e+00" itree="36">
      <Node pos="s" depth="0" NCoef="0" IVar="2" Cut="1.9777404069900513e+00" cType="1" res="-8.2691563293337822e-03" rms="4.4225376844406128e-01" purity="5.0675350427627563e-01" nType="0">
        <Node pos="l" depth="1" NCoef="0" IVar="2" Cut="1.1439898014068604e+00" cType="1" res="-9.4917610287666321e-02" rms="3.6440464854240417e-01" purity="1.6815461218357086e-01" nType="0">
          <Node pos="l" depth="2" NCoef="0" IVar="-1" Cut="0.0000000000000000e+00" cType="1" res="-2.2117227315902710e-02" rms="2.9769161343574524e-01" purity="1.0378494113683701e-01" nType="-99"/>
          <Node pos="r" depth="2" NCoef="0" IVar="-1" Cut="0.0000000000000000e+00" cType="1" res="-8.5372915491461754e-03" rms="3.9305469393730164e-01" purity="2.0463010668754578e-01" nType="-99"/>
        </Node>
        <Node pos="r" depth="1" NCoef="0" IVar="2" Cut="5.0096707344055176e+00" cType="1" res="1.0995491407811642e-02" rms="4.5553252100944519e-01" purity="5.8203458786010742e-01" nType="0">
          <Node pos="l" depth="2" NCoef="0" IVar="-1" Cut="0.0000000000000000e+00" cType="1" res="-9.6571609901729971e-05" rms="4.6517837047576904e-01" purity="5.4749828577041626e-01" nType="-99"/>
          <Node pos="r" depth="2" NCoef="0" IVar="-1" Cut="0.0000000000000000e+00" cType="1" res="2.0766727626323700e-02" rms="3.6178320646286011e-01" purity="8.4522312879562378e-01" nType="-99"/>
        </Node>
      </Node>
    </BinaryTree>
    <BinaryTree type="DecisionTree" boostWeight="1.0000000000000000e+00" itree="37">
      <Node pos="s" depth="0" NCoef="0" IVar="2" Cut="2.1804115772247314e+00" cType="1" res="-9.2784604057669640e-03" rms="4.4160038232803345e-01" purity="5.0490891933441162e-01" nType="0">
        <Node pos="l" depth="1" NCoef="0" IVar="0" Cut="4.5815170288085938e+01" cType="1" res="-8.1764504313468933e-02" rms="3.7466001510620117e-01" purity="1.8614840507507324e-01" nType="0">
          <Node pos="l" depth="2" NCoef="0" IVar="-1" Cut="0.0000000000000000e+00" cType="1" res="-1.2502900324761868e-02" rms="3.4451279044151306e-01" purity="1.4004005491733551e-01" nType="-99"/>
          <Node pos="r" depth="2" NCoef="0" IVar="-1" Cut="0.0000000000000000e+00" cType="1" res="1.3641967670992017e-03" rms="4.7413977980613708e-01" purity="3.8774472475051880e-01" nType="-99"/>
        </Node>
        <Node pos="r" depth="1" NCoef="0" IVar="1" Cut="3.9572486877441406e+00" cType="1" res="1.1469228193163872e-02" rms="4.5685485005378723e-01" purity="5.9614783525466919e-01" nType="0">
          <Node pos="l" depth="2" NCoef="0" IVar="-1" Cut="0.0000000000000000e+00" cType="1" res="2.5994598399847746e-03" rms="4.5559746026992798e-01" purity="6.0813134908676147e-01" nType="-99"/>
          <Node pos="r" depth="2" NCoef="0" IVar="-1" Cut="0.0000000000000000e+00" cType="1" res="-1.5883989632129669e-02" rms="4.5261883735656738e-01" purity="3.5882350802421570e-01" nType="-99"/>
        </Node>
      </Node>
    </BinaryTree>
    <BinaryTree type="DecisionTree" boostWeight="1.0000000000000000e+00" itree="38">
      <Node pos="s" depth="0" NCoef="0" IVar="2" Cut="3.7100217342376709e+00" cType="1" res="-1.1983851902186871e-02" rms="4.3875372409820557e-01" purity="5.0126320123672485e-01" nType="0">
        <Node pos="l" depth="1" NCoef="0" IVar="0" Cut="2.7279546737670898e+01" cType="1" res="-4.2555205523967743e-02" rms="4.4194659590721130e-01" purity="3.6834144592285156e-01" nType="0">
          <Node pos="l" depth="2" NCoef="0" IVar="-1" Cut="0.0000000000000000e+00" cType="1" res="-9.0714553371071815e-03" rms="4.2555803060531616e-01" purity="2.8448557853698730e-01" nType="-99"/>
          <Node pos="r" depth="2" NCoef="0" IVar="-1" Cut="0.0000000000000000e+00" cType="1" res="1.5955964336171746e-03" rms="4.6055507659912109e-01" purity="4.9608397483825684e-01" nType="-99"/>
        </Node>
        <Node pos="r" depth="1" NCoef="0" IVar="1" Cut="-3.3283088207244873e+00" cType="1" res="4.3445035815238953e-02" rms="4.2736348509788513e-01" purity="7.4226355552673340e-01" nType="0">
          <Node pos="l" depth="2" NCoef="0" IVar="-1" Cut="0.0000000000000000e+00" cType="1" res="-5.9482362121343613e-03" rms="4.8537877202033997e-01" purity="5.9934782981872559e-01" nType="-99"/>
          <Node pos="r" depth="2" NCoef="0" IVar="-1" Cut="0.0000000000000000e+00" cType="1" res="9.1222571209073067e-03" rms="4.2046156525611877e-01" purity="7.5593596696853638e-01" nType="-99"/>
        </Node>
      </Node>
    </BinaryTree>
    <BinaryTree type="DecisionTree" boostWeight="1.0000000000000000e+00" itree="39">
      <Node pos="s" depth="0" NCoef="0" IVar="2" Cut="1.4479646682739258e+00" cType="1" res="-1.4675141312181950e-02" rms="4.3984764814376831e-01" purity="4.9850365519523621e-01" nType="0">
        <Node pos="l" depth="1" NCoef="0" IVar="2" Cut="7.2852963209152222e-01" cType="1" res="-1.2793751060962677e-01" rms="3.0951228737831116e-01" purity="1.1532229930162430e-01" nType="0">
          <Node pos="l" depth="2" NCoef="0" IVar="-1" Cut="0.0000000000000000e+00" cType="1" res="-1.0892428457736969e-02" rms="2.5616732239723206e-01" purity="7.5510859489440918e-02" nType="-99"/>
          <Node pos="r" depth="2" NCoef="0" IVar="-1" Cut="0.0000000000000000e+00" cType="1" res="-1.6672886908054352e-02" rms="3.3603453636169434e-01" purity="1.4047877490520477e-01" nType="-99"/>
        </Node>
        <Node pos="r" depth="1" NCoef="0" IVar="0" Cut="2.9773242950439453e+01" cType="1" res="-2.0832521840929985e-03" rms="4.5026594400405884e-01" purity="5.4110372066497803e-01" nType="0">
          <Node pos="l" depth="2" NCoef="0" IVar="-1" Cut="0.0000000000000000e+00" cType="1" res="-3.2441404182463884e-03" rms="4.5700359344482422e-01" purity="4.5584622025489807e-01" nType="-99"/>
          <Node pos="r" depth="2" NCoef="0" IVar="-1" Cut="0.0000000000000000e+00" cType="1" res="5.0926441326737404e-03" rms="4.3720430135726929e-01" purity="6.6576617956161499e-01" nType="-99"/>
        </Node>
      </Node>
    </BinaryTree>
    <BinaryTree type="DecisionTree" boostWeight="1.0000000000000000e+00" itree="40">
      <Node pos="s" depth="0" NCoef="0" IVar="2" Cut="2.8549649715423584e+00" cType="1" res="-1.2855971232056618e-02" rms="4.3781760334968567e-01" purity="4.9875333905220032e-01" nType="0">
        <Node pos="l" depth="1" NCoef="0" IVar="0" Cut="5.9540794372558594e+01" cType="1" res="-6.0806274414062500e-02" rms="4.1035029292106628e-01" purity="2.4808567762374878e-01" nType="0">
          <Node pos="l" depth="2" NCoef="0" IVar="-1" Cut="0.0000000000000000e+00" cType="1" res="-8.1394286826252937e-03" rms="3.9526242017745972e-01" purity="2.0923370122909546e-01" nType="-99"/>
          <Node pos="r" depth="2" NCoef="0" IVar="-1" Cut="0.0000000000000000e+00" cType="1" res="4.0335850790143013e-03" rms="4.8831021785736084e-01" purity="5.1041388511657715e-01" nType="-99"/>
        </Node>
        <Node pos="r" depth="1" NCoef="0" IVar="2" Cut="4.6024255752563477e+00" cType="1" res="1.8707644194364548e-02" rms="4.5222762227058411e-01" purity="6.6375702619552612e-01" nType="0">
          <Node pos="l" depth="2" NCoef="0" IVar="-1" Cut="0.0000000000000000e+00" cType="1" res="3.8441331707872450e-04" rms="4.7067442536354065e-01" purity="6.1588299274444580e-01" nType="-99"/>
          <Node pos="r" depth="2" NCoef="0" IVar="-1" Cut="0.0000000000000000e+00" cType="1" res="1.0607394389808178e-02" rms="3.8608628511428833e-01" purity="8.1077772378921509e-01" nType="-99"/>
        </Node>
      </Node>
    </BinaryTree>
    <BinaryTree type="DecisionTree" boostWeight="1.0000000000000000e+00" itree="41">
      <Node pos="s" depth="0" NCoef="0" IVar="2" Cut="1.7207959890365601e+00" cType="1" res="-1.3744774274528027e-02" rms="4.4194543361663818e-01" purity="4.9963533878326416e-01" nType="0">
        <Node pos="l" depth="1" NCoef="0" IVar="2" Cut="8.1869506835937500e-01" cType="1" res="-9.7008734941482544e-02" rms="3.4098798036575317e-01" purity="1.4411993324756622e-01" nType="0">
          <Node pos="l" depth="2" NCoef="0" IVar="-1" Cut="0.0000000000000000e+00" cType="1" res="-1.4005091041326523e-02" rms="2.8275224566459656e-01" purity="9.1482743620872498e-02" nType="-99"/>
          <Node pos="r" depth="2" NCoef="0" IVar="-1" Cut="0.0000000000000000e+00" cType="1" res="-1.1369738727807999e-02" rms="3.6190405488014221e-01" purity="1.6854779422283173e-01" nType="-99"/>
        </Node>
        <Node pos="r" depth="1" NCoef="0" IVar="0" Cut="5.4232143402099609e+01" cType="1" res="-7.8033382305875421e-04" rms="4.5428562164306641e-01" purity="5.5499011278152466e-01" nType="0">
          <Node pos="l" depth="2" NCoef="0" IVar="-1" Cut="0.0000000000000000e+00" cType="1" res="-1.7845350084826350e-03" rms="4.6292951703071594e-01" purity="5.0751858949661255e-01" nType="-99"/>
          <Node pos="r" depth="2" NCoef="0" IVar="-1" Cut="0.0000000000000000e+00" cType="1" res="1.0797202587127686e-02" rms="4.1077813506126404e-01" purity="7.5324761867523193e-01" nType="-99"/>
        </Node>
      </Node>
    </BinaryTree>
    <BinaryTree type="DecisionTree" boostWeight="1.0000000000000000e+00" itree="42">
      <Node pos="s" depth="0" NCoef="0" IVar="0" Cut="1.0934732055664062e+02" cType="1" res="-1.1528760194778442e-02" rms="4.4118437170982361e-01" purity="5.0210595130920410e-01" nType="0">
        <Node pos="l" depth="1" NCoef="0" IVar="0" Cut="1.0478426933288574e+01" cType="1" res="-1.9188005477190018e-02" rms="4.4412699341773987e-01" purity="4.8464208841323853e-01" nType="0">
          <Node pos="l" depth="2" NCoef="0" IVar="-1" Cut="0.0000000000000000e+00" cType="1" res="-1.0290351696312428e-02" rms="4.2831698060035706e-01" purity="3.4212341904640198e-01" nType="-99"/>
          <Node pos="r" depth="2" NCoef="0" IVar="-1" Cut="0.0000000000000000e+00" cType="1" res="5.7749036932364106e-04" rms="4.4658592343330383e-01" purity="5.3112906217575073e-01" nType="-99"/>
        </Node>
        <Node pos="r" depth="1" NCoef="0" IVar="1" Cut="3.4030232578516006e-02" cType="1" res="1.2771755456924438e-01" rms="3.5612595081329346e-01" purity="8.1960177421569824e-01" nType="0">
          <Node pos="l" depth="2" NCoef="0" IVar="-1" Cut="0.0000000000000000e+00" cType="1" res="3.7507958710193634e-02" rms="3.4143155813217163e-01" purity="8.4007686376571655e-01" nType="-99"/>
          <Node pos="r" depth="2" NCoef="0" IVar="-1" Cut="0.0000000000000000e+00" cType="1" res="1.9119584932923317e-02" rms="3.7031704187393188e-01" purity="7.9761010408401489e-01" nType="-99"/>
        </Node>
      </Node>
    </BinaryTree>
    <BinaryTree type="DecisionTree" boostWeight="1.0000000000000000e+00" itree="43">
      <Node pos="s" depth="0" NCoef="0" IVar="2" Cut="1.5688251256942749e+00" cType="1" res="-8.7940897792577744e-03" rms="4.3893942236900330e-01" purity="5.0215840339660645e-01" nType="0">
        <Node pos="l" depth="1" NCoef="0" IVar="2" Cut="7.4993449449539185e-01" cType="1" res="-1.0378751158714294e-01" rms="3.2987722754478455e-01" purity="1.3232941925525665e-01" nType="0">
          <Node pos="l" depth="2" NCoef="0" IVar="-1" Cut="0.0000000000000000e+00" cType="1" res="-1.3359765522181988e-02" rms="2.8289297223091125e-01" purity="9.2055760324001312e-02" nType="-99"/>
          <Node pos="r" depth="2" NCoef="0" IVar="-1" Cut="0.0000000000000000e+00" cType="1" res="-8.7307775393128395e-03" rms="3.4884670376777649e-01" purity="1.5292122960090637e-01" nType="-99"/>
        </Node>
        <Node pos="r" depth="1" NCoef="0" IVar="0" Cut="7.1766609191894531e+01" cType="1" res="3.5822344943881035e-03" rms="4.4973695278167725e-01" purity="5.5034196376800537e-01" nType="0">
          <Node pos="l" depth="2" NCoef="0" IVar="-1" Cut="0.0000000000000000e+00" cType="1" res="-8.0969172995537519e-04" rms="4.5588690042495728e-01" purity="5.1701945066452026e-01" nType="-99"/>
          <Node pos="r" depth="2" NCoef="0" IVar="-1" Cut="0.0000000000000000e+00" cType="1" res="1.4605453237891197e-02" rms="3.9539745450019836e-01" purity="7.8895860910415649e-01" nType="-99"/>
        </Node>
      </Node>
    </BinaryTree>
    <BinaryTree type="DecisionTree" boostWeight="1.0000000000000000e+00" itree="44">
      <Node pos="s" depth="0" NCoef="0" IVar="2" Cut="1.9777404069900513e+00" cType="1" res="-1.2271593324840069e-02" rms="4.3800577521324158e-01" purity="4.9835929274559021e-01" nType="0">
        <Node pos="l" depth="1" NCoef="0" IVar="2" Cut="7.2711890935897827e-01" cType="1" res="-8.5149772465229034e-02" rms="3.5026478767395020e-01" purity="1.5541246533393860e-01" nType="0">
          <Node pos="l" depth="2" NCoef="0" IVar="-1" Cut="0.0000000000000000e+00" cType="1" res="-1.2497691437602043e-02" rms="2.7058181166648865e-01" purity="8.5651643574237823e-02" nType="-99"/>
          <Node pos="r" depth="2" NCoef="0" IVar="-1" Cut="0.0000000000000000e+00" cType="1" res="-1.0613021440804005e-02" rms="3.6710888147354126e-01" purity="1.7418463528156281e-01" nType="-99"/>
        </Node>
        <Node pos="r" depth="1" NCoef="0" IVar="1" Cut="4.0072493553161621e+00" cType="1" res="4.3532401323318481e-03" rms="4.5402488112449646e-01" purity="5.7659167051315308e-01" nType="0">
          <Node pos="l" depth="2" NCoef="0" IVar="-1" Cut="0.0000000000000000e+00" cType="1" res="1.3009711401537061e-03" rms="4.5355060696601868e-01" purity="5.8748245239257812e-01" nType="-99"/>
          <Node pos="r" depth="2" NCoef="0" IVar="-1" Cut="0.0000000000000000e+00" cType="1" res="-1.7669605091214180e-02" rms="4.4406336545944214e-01" purity="3.4714695811271667e-01" nType="-99"/>
        </Node>
      </Node>
    </BinaryTree>
    <BinaryTree type="DecisionTree" boostWeight="1.0000000000000000e+00" itree="45">
      <Node pos="s" depth="0" NCoef="0" IVar="2" Cut="1.2079511880874634e+00" cType="1" res="-1.6247583553195000e-02" rms="4.4063431024551392e-01" purity="4.9531570076942444e-01" nType="0">
        <Node pos="l" depth="1" NCoef="0" IVar="2" Cut="6.9632899761199951e-01" cType="1" res="-1.2520556151866913e-01" rms="2.9767394065856934e-01" purity="1.0204966366291046e-01" nType="0">
          <Node pos="l" depth="2" NCoef="0" IVar="-1" Cut="0.0000000000000000e+00" cType="1" res="-1.0377084836363792e-02" rms="2.5766140222549438e-01" purity="7.2466306388378143e-02" nType="-99"/>
          <Node pos="r" depth="2" NCoef="0" IVar="-1" Cut="0.0000000000000000e+00" cType="1" res="-1.1013841256499290e-02" rms="3.2983142137527466e-01" purity="1.3251422345638275e-01" nType="-99"/>
        </Node>
        <Node pos="r" depth="1" NCoef="0" IVar="0" Cut="8.2028762817382812e+01" cType="1" res="-7.3427930474281311e-03" rms="4.4914945960044861e-01" purity="5.2745610475540161e-01" nType="0">
          <Node pos="l" depth="2" NCoef="0" IVar="-1" Cut="0.0000000000000000e+00" cType="1" res="-2.0788307301700115e-03" rms="4.5496055483818054e-01" purity="4.9933448433876038e-01" nType="-99"/>
          <Node pos="r" depth="2" NCoef="0" IVar="-1" Cut="0.0000000000000000e+00" cType="1" res="1.7143845558166504e-02" rms="3.7630942463874817e-01" purity="7.9700022935867310e-01" nType="-99"/>
        </Node>
      </Node>
    </BinaryTree>
    <BinaryTree type="DecisionTree" boostWeight="1.0000000000000000e+00" itree="46">
      <Node pos="s" depth="0" NCoef="0" IVar="2" Cut="2.1804115772247314e+00" cType="1" res="-7.0563228800892830e-03" rms="4.3756374716758728e-01" purity="5.0364798307418823e-01" nType="0">
        <Node pos="l" depth="1" NCoef="0" IVar="2" Cut="1.5351612567901611e+00" cType="1" res="-7.3799856007099152e-02" rms="3.6187323927879333e-01" purity="1.7420287430286407e-01" nType="0">
          <Node pos="l" depth="2" NCoef="0" IVar="-1" Cut="0.0000000000000000e+00" cType="1" res="-1.3932900503277779e-02" rms="3.0505961179733276e-01" purity="1.1285399645566940e-01" nType="-99"/>
          <Node pos="r" depth="2" NCoef="0" IVar="-1" Cut="0.0000000000000000e+00" cType="1" res="-5.4605496115982533e-03" rms="4.0741020441055298e-01" purity="2.3516270518302917e-01" nType="-99"/>
        </Node>
        <Node pos="r" depth="1" NCoef="0" IVar="1" Cut="2.5463359355926514e+00" cType="1" res="1.2469308450818062e-02" rms="4.5549923181533813e-01" purity="6.0002624988555908e-01" nType="0">
          <Node pos="l" depth="2" NCoef="0" IVar="-1" Cut="0.0000000000000000e+00" cType="1" res="4.3470552191138268e-03" rms="4.4970092177391052e-01" purity="6.2993633747100830e-01" nType="-99"/>
          <Node pos="r" depth="2" NCoef="0" IVar="-1" Cut="0.0000000000000000e+00" cType="1" res="-4.0823970921337605e-03" rms="4.7316420078277588e-01" purity="4.8331516981124878e-01" nType="-99"/>
        </Node>
      </Node>
    </BinaryTree>
    <BinaryTree type="DecisionTree" boostWeight="1.0000000000000000e+00" itree="47">
      <Node pos="s" depth="0" NCoef="0" IVar="2" Cut="3.0615425109863281e+00" cType="1" res="-1.0005128569900990e-02" rms="4.3716144561767578e-01" purity="5.0025814771652222e-01" nType="0">
        <Node pos="l" depth="1" NCoef="0" IVar="0" Cut="8.9316184997558594e+01" cType="1" res="-4.5012649148702621e-02" rms="4.2075669765472412e-01" purity="2.8011840581893921e-01" nType="0">
          <Node pos="l" depth="2" NCoef="0" IVar="-1" Cut="0.0000000000000000e+00" cType="1" res="-5.9917909093201160e-03" rms="4.1632252931594849e-01" purity="2.5707545876502991e-01" nType="-99"/>
          <Node pos="r" depth="2" NCoef="0" IVar="-1" Cut="0.0000000000000000e+00" cType="1" res="8.0171776935458183e-03" rms="4.6092733740806580e-01" purity="6.1127978563308716e-01" nType="-99"/>
        </Node>
        <Node pos="r" depth="1" NCoef="0" IVar="1" Cut="2.6581795215606689e+00" cType="1" res="1.8995851278305054e-02" rms="4.4823315739631653e-01" purity="6.8262672424316406e-01" nType="0">
          <Node pos="l" depth="2" NCoef="0" IVar="-1" Cut="0.0000000000000000e+00" cType="1" res="4.9222563393414021e-03" rms="4.3793353438377380e-01" purity="7.0994108915328979e-01" nType="-99"/>
          <Node pos="r" depth="2" NCoef="0" IVar="-1" Cut="0.0000000000000000e+00" cType="1" res="-3.3553927205502987e-03" rms="4.8742583394050598e-01" purity="5.5645066499710083e-01" nType="-99"/>
        </Node>
      </Node>
    </BinaryTree>
    <BinaryTree type="DecisionTree" boostWeight="1.0000000000000000e+00" itree="48">
      <Node pos="s" depth="0" NCoef="0" IVar="2" Cut="1.6346313953399658e+00" cType="1" res="-1.2630641460418701e-02" rms="4.3952220678329468e-01" purity="4.9841830134391785e-01" nType="0">
        <Node pos="l" depth="1" NCoef="0" IVar="2" Cut="7.4505722522735596e-01" cType="1" res="-8.5494406521320343e-02" rms="3.3391320705413818e-01" purity="1.3429994881153107e-01" nType="0">
          <Node pos="l" depth="2" NCoef="0" IVar="-1" Cut="0.0000000000000000e+00" cType="1" res="-9.8711950704455376e-03" rms="2.6327270269393921e-01" purity="7.6221346855163574e-02" nType="-99"/>
          <Node pos="r" depth="2" NCoef="0" IVar="-1" Cut="0.0000000000000000e+00" cType="1" res="-8.6123161017894745e-03" rms="3.5868835449218750e-01" purity="1.6110345721244812e-01" nType="-99"/>
        </Node>
        <Node pos="r" depth="1" NCoef="0" IVar="0" Cut="2.3742395401000977e+01" cType="1" res="-2.2957089822739363e-03" rms="4.5155906677246094e-01" purity="5.5006444454193115e-01" nType="0">
          <Node pos="l" depth="2" NCoef="0" IVar="-1" Cut="0.0000000000000000e+00" cType="1" res="-2.9645550530403852e-03" rms="4.6235021948814392e-01" purity="4.5154026150703430e-01" nType="-99"/>
          <Node pos="r" depth="2" NCoef="0" IVar="-1" Cut="0.0000000000000000e+00" cType="1" res="3.7225009873509407e-03" rms="4.3811792135238647e-01" purity="6.5278160572052002e-01" nType="-99"/>
        </Node>
      </Node>
    </BinaryTree>
    <BinaryTree type="DecisionTree" boostWeight="1.0000000000000000e+00" itree="49">
      <Node pos="s" depth="0" NCoef="0" IVar="2" Cut="3.5694308280944824e+00" cType="1" res="-6.4065707847476006e-03" rms="4.3687435984611511e-01" purity="5.0445735454559326e-01" nType="0">
        <Node pos="l" depth="1" NCoef="0" IVar="0" Cut="8.1395072937011719e+01" cType="1" res="-3.1476635485887527e-02" rms="4.3817400932312012e-01" purity="3.5359320044517517e-01" nType="0">
          <Node pos="l" depth="2" NCoef="0" IVar="-1" Cut="0.0000000000000000e+00" cType="1" res="-4.9615786410868168e-03" rms="4.3604803085327148e-01" purity="3.2624736428260803e-01" nType="-99"/>
          <Node pos="r" depth="2" NCoef="0" IVar="-1" Cut="0.0000000000000000e+00" cType="1" res="1.4332068152725697e-02" rms="4.4654121994972229e-01" purity="6.7696946859359741e-01" nType="-99"/>
        </Node>
        <Node pos="r" depth="1" NCoef="0" IVar="2" Cut="4.1757898330688477e+00" cType="1" res="3.1063679605722427e-02" rms="4.3222224712371826e-01" purity="7.2994208335876465e-01" nType="0">
          <Node pos="l" depth="2" NCoef="0" IVar="-1" Cut="0.0000000000000000e+00" cType="1" res="4.6638268395327032e-04" rms="4.6339273452758789e-01" purity="6.5945130586624146e-01" nType="-99"/>
          <Node pos="r" depth="2" NCoef="0" IVar="-1" Cut="0.0000000000000000e+00" cType="1" res="8.1657441332936287e-03" rms="4.0722665190696716e-01" purity="7.8062033653259277e-01" nType="-99"/>
        </Node>
      </Node>
    </BinaryTree>
    <BinaryTree type="DecisionTree" boostWeight="1.0000000000000000e+00" itree="50">
      <Node pos="s" depth="0" NCoef="0" IVar="2" Cut="1.9777404069900513e+00" cType="1" res="-1.0324412956833839e-02" rms="4.3946957588195801e-01" purity="4.9923312664031982e-01" nType="0">
        <Node pos="l" depth="1" NCoef="0" IVar="2" Cut="7.2711372375488281e-01" cType="1" res="-6.6685028374195099e-02" rms="3.5932177305221558e-01" purity="1.6104958951473236e-01" nType="0">
          <Node pos="l" depth="2" NCoef="0" IVar="-1" Cut="0.0000000000000000e+00" cType="1" res="-1.1369745247066021e-02" rms="2.6050677895545959e-01" purity="7.5000479817390442e-02" nType="-99"/>
          <Node pos="r" depth="2" NCoef="0" IVar="-1" Cut="0.0000000000000000e+00" cType="1" res="-7.4958303011953831e-03" rms="3.7862187623977661e-01" purity="1.8384245038032532e-01" nType="-99"/>
        </Node>
        <Node pos="r" depth="1" NCoef="0" IVar="0" Cut="9.6111747741699219e+01" cType="1" res="2.3483491968363523e-03" rms="4.5459207892417908e-01" purity="5.7527416944503784e-01" nType="0">
          <Node pos="l" depth="2" NCoef="0" IVar="-1" Cut="0.0000000000000000e+00" cType="1" res="-5.7713536079972982e-04" rms="4.6111312508583069e-01" purity="5.5447292327880859e-01" nType="-99"/>
          <Node pos="r" depth="2" NCoef="0" IVar="-1" Cut="0.0000000000000000e+00" cType="1" res="2.6568491011857986e-02" rms="3.4146335721015930e-01" purity="8.5634952783584595e-01" nType="-99"/>
        </Node>
      </Node>
    </BinaryTree>
    <BinaryTree type="DecisionTree" boostWeight="1.0000000000000000e+00" itree="51">
      <Node pos="s" depth="0" NCoef="0" IVar="2" Cut="3.3665599822998047e+00" cType="1" res="-1.1198369786143303e-02" rms="4.3754819035530090e-01" purity="4.9739703536033630e-01" nType="0">
        <Node pos="l" depth="1" NCoef="0" IVar="0" Cut="8.7038154602050781e+01" cType="1" res="-3.6567717790603638e-02" rms="4.3356013298034668e-01" purity="3.2204106450080872e-01" nType="0">
          <Node pos="l" depth="2" NCoef="0" IVar="-1" Cut="0.0000000000000000e+00" cType="1" res="-5.3879022598266602e-03" rms="4.3156233429908752e-01" purity="2.9828757047653198e-01" nType="-99"/>
          <Node pos="r" depth="2" NCoef="0" IVar="-1" Cut="0.0000000000000000e+00" cType="1" res="6.7391237244009972e-03" rms="4.4785416126251221e-01" purity="6.3997858762741089e-01" nType="-99"/>
        </Node>
        <Node pos="r" depth="1" NCoef="0" IVar="1" Cut="3.1979489326477051e+00" cType="1" res="1.8989983946084976e-02" rms="4.4034662842750549e-01" purity="7.0606261491775513e-01" nType="0">
          <Node pos="l" depth="2" NCoef="0" IVar="-1" Cut="0.0000000000000000e+00" cType="1" res="4.1038654744625092e-03" rms="4.3380945920944214e-01" purity="7.2411400079727173e-01" nType="-99"/>
          <Node pos="r" depth="2" NCoef="0" IVar="-1" Cut="0.0000000000000000e+00" cType="1" res="-3.0454101506620646e-03" rms="4.8421803116798401e-01" purity="5.6340891122817993e-01" nType="-99"/>
        </Node>
      </Node>
    </BinaryTree>
    <BinaryTree type="DecisionTree" boostWeight="1.0000000000000000e+00" itree="52">
      <Node pos="s" depth="0" NCoef="0" IVar="2" Cut="3.2221608161926270e+00" cType="1" res="-6.9616958498954773e-03" rms="4.3728038668632507e-01" purity="5.0361567735671997e-01" nType="0">
        <Node pos="l" depth="1" NCoef="0" IVar="2" Cut="7.6024150848388672e-01" cType="1" res="-3.4073740243911743e-02" rms="4.3038344383239746e-01" purity="3.0650728940963745e-01" nType="0">
          <Node pos="l" depth="2" NCoef="0" IVar="-1" Cut="0.0000000000000000e+00" cType="1" res="-1.2710732407867908e-02" rms="2.8009414672851562e-01" purity="9.1318741440773010e-02" nType="-99"/>
          <Node pos="r" depth="2" NCoef="0" IVar="-1" Cut="0.0000000000000000e+00" cType="1" res="-3.2821870408952236e-03" rms="4.4022116065025330e-01" purity="3.2515490055084229e-01" nType="-99"/>
        </Node>
        <Node pos="r" depth="1" NCoef="0" IVar="2" Cut="5.4603719711303711e+00" cType="1" res="2.0010476931929588e-02" rms="4.4238975644111633e-01" purity="6.9970721006393433e-01" nType="0">
          <Node pos="l" depth="2" NCoef="0" IVar="-1" Cut="0.0000000000000000e+00" cType="1" res="1.5353854978457093e-03" rms="4.5206040143966675e-01" purity="6.7989540100097656e-01" nType="-99"/>
          <Node pos="r" depth="2" NCoef="0" IVar="-1" Cut="0.0000000000000000e+00" cType="1" res="2.3865368217229843e-02" rms="3.3273324370384216e-01" purity="8.7636679410934448e-01" nType="-99"/>
        </Node>
      </Node>
    </BinaryTree>
    <BinaryTree type="DecisionTree" boostWeight="1.0000000000000000e+00" itree="53">
      <Node pos="s" depth="0" NCoef="0" IVar="2" Cut="1.6524423360824585e+00" cType="1" res="-4.5888489112257957e-03" rms="4.3620043992996216e-01" purity="5.0371181964874268e-01" nType="0">
        <Node pos="l" depth="1" NCoef="0" IVar="2" Cut="6.8082481622695923e-01" cType="1" res="-8.3986848592758179e-02" rms="3.2237389683723450e-01" purity="1.2725889682769775e-01" nType="0">
          <Node pos="l" depth="2" NCoef="0" IVar="-1" Cut="0.0000000000000000e+00" cType="1" res="-1.1254619807004929e-02" rms="2.7703720331192017e-01" purity="9.1180145740509033e-02" nType="-99"/>
          <Node pos="r" depth="2" NCoef="0" IVar="-1" Cut="0.0000000000000000e+00" cType="1" res="-1.1531205847859383e-02" rms="3.3735820651054382e-01" purity="1.4107719063758850e-01" nType="-99"/>
        </Node>
        <Node pos="r" depth="1" NCoef="0" IVar="1" Cut="3.0746843814849854e+00" cType="1" res="7.2028250433504581e-03" rms="4.4946533441543579e-01" purity="5.5962014198303223e-01" nType="0">
          <Node pos="l" depth="2" NCoef="0" IVar="-1" Cut="0.0000000000000000e+00" cType="1" res="2.7709593996405602e-03" rms="4.4706216454505920e-01" purity="5.8332496881484985e-01" nType="-99"/>
          <Node pos="r" depth="2" NCoef="0" IVar="-1" Cut="0.0000000000000000e+00" cType="1" res="-5.3155329078435898e-03" rms="4.5836654305458069e-01" purity="4.0471142530441284e-01" nType="-99"/>
        </Node>
      </Node>
    </BinaryTree>
    <BinaryTree type="DecisionTree" boostWeight="1.0000000000000000e+00" itree="54">
      <Node pos="s" depth="0" NCoef="0" IVar="2" Cut="8.2602137327194214e-01" cType="1" res="-1.3944305479526520e-02" rms="4.3951016664505005e-01" purity="4.9767786264419556e-01" nType="0">
        <Node pos="l" depth="1" NCoef="0" IVar="-1" Cut="0.0000000000000000e+00" cType="1" res="-9.0558519586920738e-03" rms="2.5426632165908813e-01" purity="7.3279373347759247e-02" nType="-99"/>
        <Node pos="r" depth="1" NCoef="0" IVar="1" Cut="-3.5477612018585205e+00" cType="1" res="-8.3537185564637184e-03" rms="4.4562259316444397e-01" purity="5.1782172918319702e-01" nType="0">
          <Node pos="l" depth="2" NCoef="0" IVar="-1" Cut="0.0000000000000000e+00" cType="1" res="-1.0662812739610672e-02" rms="4.3152806162834167e-01" purity="3.3620551228523254e-01" nType="-99"/>
          <Node pos="r" depth="2" NCoef="0" IVar="-1" Cut="0.0000000000000000e+00" cType="1" res="-2.9553386411862448e-05" rms="4.4590708613395691e-01" purity="5.3365278244018555e-01" nType="-99"/>
        </Node>
      </Node>
    </BinaryTree>
    <BinaryTree type="DecisionTree" boostWeight="1.0000000000000000e+00" itree="55">
      <Node pos="s" depth="0" NCoef="0" IVar="2" Cut="1.8957804441452026e+00" cType="1" res="-7.8363977372646332e-03" rms="4.3729153275489807e-01" purity="5.0232011079788208e-01" nType="0">
        <Node pos="l" depth="1" NCoef="0" IVar="2" Cut="7.4704796075820923e-01" cType="1" res="-6.1509985476732254e-02" rms="3.4789487719535828e-01" purity="1.5110181272029877e-01" nType="0">
          <Node pos="l" depth="2" NCoef="0" IVar="-1" Cut="0.0000000000000000e+00" cType="1" res="-1.5185602009296417e-02" rms="2.6061585545539856e-01" purity="7.7267616987228394e-02" nType="-99"/>
          <Node pos="r" depth="2" NCoef="0" IVar="-1" Cut="0.0000000000000000e+00" cType="1" res="-7.3795537464320660e-03" rms="3.6863464117050171e-01" purity="1.7396610975265503e-01" nType="-99"/>
        </Node>
        <Node pos="r" depth="1" NCoef="0" IVar="1" Cut="4.0072493553161621e+00" cType="1" res="3.2394439913332462e-03" rms="4.5275980234146118e-01" purity="5.7479596138000488e-01" nType="0">
          <Node pos="l" depth="2" NCoef="0" IVar="-1" Cut="0.0000000000000000e+00" cType="1" res="1.0897860629484057e-03" rms="4.5283326506614685e-01" purity="5.8612376451492310e-01" nType="-99"/>
          <Node pos="r" depth="2" NCoef="0" IVar="-1" Cut="0.0000000000000000e+00" cType="1" res="-1.0525244288146496e-02" rms="4.3852964043617249e-01" purity="3.4737378358840942e-01" nType="-99"/>
        </Node>
      </Node>
    </BinaryTree>
    <BinaryTree type="DecisionTree" boostWeight="1.0000000000000000e+00" itree="56">
      <Node pos="s" depth="0" NCoef="0" IVar="2" Cut="3.5694308280944824e+00" cType="1" res="-8.7088802829384804e-03" rms="4.3396988511085510e-01" purity="4.9774011969566345e-01" nType="0">
        <Node pos="l" depth="1" NCoef="0" IVar="1" Cut="3.7831850051879883e+00" cType="1" res="-3.0207818374037743e-02" rms="4.3451163172721863e-01" purity="3.4626364707946777e-01" nType="0">
          <Node pos="l" depth="2" NCoef="0" IVar="-1" Cut="0.0000000000000000e+00" cType="1" res="-3.1955200247466564e-03" rms="4.3896856904029846e-01" purity="3.5981118679046631e-01" nType="-99"/>
          <Node pos="r" depth="2" NCoef="0" IVar="-1" Cut="0.0000000000000000e+00" cType="1" res="-1.2746528722345829e-02" rms="3.6558997631072998e-01" purity="1.8056212365627289e-01" nType="-99"/>
        </Node>
        <Node pos="r" depth="1" NCoef="0" IVar="2" Cut="4.1757898330688477e+00" cType="1" res="2.4100776761770248e-02" rms="4.3107998371124268e-01" purity="7.2890931367874146e-01" nType="0">
          <Node pos="l" depth="2" NCoef="0" IVar="-1" Cut="0.0000000000000000e+00" cType="1" res="-8.2955160178244114e-04" rms="4.6548563241958618e-01" purity="6.5201187133789062e-01" nType="-99"/>
          <Node pos="r" depth="2" NCoef="0" IVar="-1" Cut="0.0000000000000000e+00" cType="1" res="9.1528650373220444e-03" rms="4.0344312787055969e-01" purity="7.8346335887908936e-01" nType="-99"/>
        </Node>
      </Node>
    </BinaryTree>
    <BinaryTree type="DecisionTree" boostWeight="1.0000000000000000e+00" itree="57">
      <Node pos="s" depth="0" NCoef="0" IVar="2" Cut="1.1818951368331909e+00" cType="1" res="-8.9661274105310440e-03" rms="4.3816676735877991e-01" purity="4.9979621171951294e-01" nType="0">
        <Node pos="l" depth="1" NCoef="0" IVar="1" Cut="2.8660243749618530e-01" cType="1" res="-9.7176849842071533e-02" rms="2.9483950138092041e-01" purity="9.9198214709758759e-02" nType="0">
          <Node pos="l" depth="2" NCoef="0" IVar="-1" Cut="0.0000000000000000e+00" cType="1" res="-8.6699556559324265e-03" rms="3.0472850799560547e-01" purity="1.0363841056823730e-01" nType="-99"/>
          <Node pos="r" depth="2" NCoef="0" IVar="-1" Cut="0.0000000000000000e+00" cType="1" res="-1.2207918800413609e-02" rms="2.8323680162429810e-01" purity="9.4175711274147034e-02" nType="-99"/>
        </Node>
        <Node pos="r" depth="1" NCoef="0" IVar="1" Cut="-3.7763462066650391e+00" cType="1" res="-2.3049456067383289e-03" rms="4.4642096757888794e-01" purity="5.3004711866378784e-01" nType="0">
          <Node pos="l" depth="2" NCoef="0" IVar="-1" Cut="0.0000000000000000e+00" cType="1" res="-5.6355828419327736e-03" rms="4.4284880161285400e-01" purity="3.4328341484069824e-01" nType="-99"/>
          <Node pos="r" depth="2" NCoef="0" IVar="-1" Cut="0.0000000000000000e+00" cType="1" res="5.6665966985747218e-04" rms="4.4593039155006409e-01" purity="5.4309660196304321e-01" nType="-99"/>
        </Node>
      </Node>
    </BinaryTree>
    <BinaryTree type="DecisionTree" boostWeight="1.0000000000000000e+00" itree="58">
      <Node pos="s" depth="0" NCoef="0" IVar="0" Cut="8.9274642944335938e+01" cType="1" res="-9.5328940078616142e-03" rms="4.3878284096717834e-01" purity="4.9870300292968750e-01" nType="0">
        <Node pos="l" depth="1" NCoef="0" IVar="0" Cut="8.5675010681152344e+00" cType="1" res="-1.7236247658729553e-02" rms="4.4311997294425964e-01" purity="4.7268134355545044e-01" nType="0">
          <Node pos="l" depth="2" NCoef="0" IVar="-1" Cut="0.0000000000000000e+00" cType="1" res="-1.0324932634830475e-02" rms="4.2654904723167419e-01" purity="3.3826354146003723e-01" nType="-99"/>
          <Node pos="r" depth="2" NCoef="0" IVar="-1" Cut="0.0000000000000000e+00" cType="1" res="-3.2303557964041829e-04" rms="4.4590908288955688e-01" purity="5.0562125444412231e-01" nType="-99"/>
        </Node>
        <Node pos="r" depth="1" NCoef="0" IVar="1" Cut="-6.4699798822402954e-01" cType="1" res="8.0677442252635956e-02" rms="3.7270063161849976e-01" purity="8.0343073606491089e-01" nType="0">
          <Node pos="l" depth="2" NCoef="0" IVar="-1" Cut="0.0000000000000000e+00" cType="1" res="3.7301231641322374e-03" rms="4.0386879444122314e-01" purity="7.4325919151306152e-01" nType="-99"/>
          <Node pos="r" depth="2" NCoef="0" IVar="-1" Cut="0.0000000000000000e+00" cType="1" res="3.0806181952357292e-02" rms="3.4915369749069214e-01" purity="8.3840721845626831e-01" nType="-99"/>
        </Node>
      </Node>
    </BinaryTree>
    <BinaryTree type="DecisionTree" boostWeight="1.0000000000000000e+00" itree="59">
      <Node pos="s" depth="0" NCoef="0" IVar="0" Cut="1.3663891601562500e+02" cType="1" res="-6.1861914582550526e-03" rms="4.3756726384162903e-01" purity="5.0162249803543091e-01" nType="0">
        <Node pos="l" depth="1" NCoef="0" IVar="0" Cut="6.5414862632751465e+00" cType="1" res="-1.0325445793569088e-02" rms="4.3974286317825317e-01" purity="4.9044457077980042e-01" nType="0">
          <Node pos="l" depth="2" NCoef="0" IVar="-1" Cut="0.0000000000000000e+00" cType="1" res="-8.4571801126003265e-03" rms="4.1980549693107605e-01" purity="3.1864255666732788e-01" nType="-99"/>
          <Node pos="r" depth="2" NCoef="0" IVar="-1" Cut="0.0000000000000000e+00" cType="1" res="3.0955350666772574e-05" rms="4.4164180755615234e-01" purity="5.1588165760040283e-01" nType="-99"/>
        </Node>
        <Node pos="r" depth="1" NCoef="0" IVar="-1" Cut="0.0000000000000000e+00" cType="1" res="3.9889190346002579e-02" rms="3.3071523904800415e-01" purity="8.7006330490112305e-01" nType="-99"/>
      </Node>
    </BinaryTree>
    <BinaryTree type="DecisionTree" boostWeight="1.0000000000000000e+00" itree="60">
      <Node pos="s" depth="0" NCoef="0" IVar="1" Cut="-3.6765737533569336e+00" cType="1" res="-8.0135427415370941e-03" rms="4.3598806858062744e-01" purity="4.9891015887260437e-01" nType="0">
        <Node pos="l" depth="1" NCoef="0" IVar="0" Cut="6.0067529678344727e+00" cType="1" res="-9.7196988761425018e-02" rms="4.2582133412361145e-01" purity="3.1546911597251892e-01" nType="0">
          <Node pos="l" depth="2" NCoef="0" IVar="-1" Cut="0.0000000000000000e+00" cType="1" res="-6.1756400391459465e-03" rms="4.1343277692794800e-01" purity="2.7677482366561890e-01" nType="-99"/>
          <Node pos="r" depth="2" NCoef="0" IVar="-1" Cut="0.0000000000000000e+00" cType="1" res="-1.0322964750230312e-02" rms="4.3725991249084473e-01" purity="3.5865861177444458e-01" nType="-99"/>
        </Node>
        <Node pos="r" depth="1" NCoef="0" IVar="2" Cut="1.9777404069900513e+00" cType="1" res="-1.1488640448078513e-03" rms="4.3600535392761230e-01" purity="5.1303011178970337e-01" nType="0">
          <Node pos="l" depth="2" NCoef="0" IVar="-1" Cut="0.0000000000000000e+00" cType="1" res="-6.7091737873852253e-03" rms="3.5807740688323975e-01" purity="1.6485781967639923e-01" nType="-99"/>
          <Node pos="r" depth="2" NCoef="0" IVar="-1" Cut="0.0000000000000000e+00" cType="1" res="1.1451721657067537e-03" rms="4.5098447799682617e-01" purity="5.9150201082229614e-01" nType="-99"/>
        </Node>
      </Node>
    </BinaryTree>
    <BinaryTree type="DecisionTree" boostWeight="1.0000000000000000e+00" itree="61">
      <Node pos="s" depth="0" NCoef="0" IVar="2" Cut="1.5032165050506592e+00" cType="1" res="-7.2279521264135838e-03" rms="4.3578690290451050e-01" purity="5.0123614072799683e-01" nType="0">
        <Node pos="l" depth="1" NCoef="0" IVar="2" Cut="9.2267423868179321e-01" cType="1" res="-7.3316209018230438e-02" rms="3.1556862592697144e-01" purity="1.1958499252796173e-01" nType="0">
          <Node pos="l" depth="2" NCoef="0" IVar="-1" Cut="0.0000000000000000e+00" cType="1" res="-5.4460102692246437e-03" rms="2.8720268607139587e-01" purity="9.6060417592525482e-02" nType="-99"/>
          <Node pos="r" depth="2" NCoef="0" IVar="-1" Cut="0.0000000000000000e+00" cType="1" res="-1.0486015118658543e-02" rms="3.4061488509178162e-01" purity="1.4324299991130829e-01" nType="-99"/>
        </Node>
        <Node pos="r" depth="1" NCoef="0" IVar="0" Cut="1.3538864135742188e+02" cType="1" res="1.0150093585252762e-03" rms="4.4784334301948547e-01" purity="5.4883813858032227e-01" nType="0">
          <Node pos="l" depth="2" NCoef="0" IVar="-1" Cut="0.0000000000000000e+00" cType="1" res="-3.2098547671921551e-04" rms="4.5113810896873474e-01" purity="5.3807032108306885e-01" nType="-99"/>
          <Node pos="r" depth="2" NCoef="0" IVar="-1" Cut="0.0000000000000000e+00" cType="1" res="3.9252359420061111e-02" rms="3.0027997493743896e-01" purity="8.9759021997451782e-01" nType="-99"/>
        </Node>
      </Node>
    </BinaryTree>
    <BinaryTree type="DecisionTree" boostWeight="1.0000000000000000e+00" itree="62">
      <Node pos="s" depth="0" NCoef="0" IVar="2" Cut="1.1818951368331909e+00" cType="1" res="-7.3495120741426945e-03" rms="4.3712297081947327e-01" purity="5.0052839517593384e-01" nType="0">
        <Node pos="l" depth="1" NCoef="0" IVar="1" Cut="-4.9633508920669556e-01" cType="1" res="-7.7359750866889954e-02" rms="3.0076241493225098e-01" purity="1.0722436010837555e-01" nType="0">
          <Node pos="l" depth="2" NCoef="0" IVar="-1" Cut="0.0000000000000000e+00" cType="1" res="-6.3850712031126022e-03" rms="3.0713438987731934e-01" purity="1.0981626063585281e-01" nType="-99"/>
          <Node pos="r" depth="2" NCoef="0" IVar="-1" Cut="0.0000000000000000e+00" cType="1" res="-1.1229909025132656e-02" rms="2.9474964737892151e-01" purity="1.0485973954200745e-01" nType="-99"/>
        </Node>
        <Node pos="r" depth="1" NCoef="0" IVar="0" Cut="5.4152526855468750e+01" cType="1" res="-1.8373049097135663e-03" rms="4.4562578201293945e-01" purity="5.3149485588073730e-01" nType="0">
          <Node pos="l" depth="2" NCoef="0" IVar="-1" Cut="0.0000000000000000e+00" cType="1" res="-1.3200200628489256e-03" rms="4.5329454541206360e-01" purity="4.8154625296592712e-01" nType="-99"/>
          <Node pos="r" depth="2" NCoef="0" IVar="-1" Cut="0.0000000000000000e+00" cType="1" res="6.9097047671675682e-03" rms="4.0993058681488037e-01" purity="7.4075341224670410e-01" nType="-99"/>
        </Node>
      </Node>
    </BinaryTree>
    <BinaryTree type="DecisionTree" boostWeight="1.0000000000000000e+00" itree="63">
      <Node pos="s" depth="0" NCoef="0" IVar="1" Cut="-3.7789189815521240e+00" cType="1" res="-1.2870525009930134e-02" rms="4.4061192870140076e-01" purity="4.9608126282691956e-01" nType="0">
        <Node pos="l" depth="1" NCoef="0" IVar="0" Cut="5.5403518676757812e+00" cType="1" res="-8.4221541881561279e-02" rms="4.2072415351867676e-01" purity="3.1769582629203796e-01" nType="0">
          <Node pos="l" depth="2" NCoef="0" IVar="-1" Cut="0.0000000000000000e+00" cType="1" res="-8.5415299981832504e-03" rms="4.0252941846847534e-01" purity="2.9294329881668091e-01" nType="-99"/>
          <Node pos="r" depth="2" NCoef="0" IVar="-1" Cut="0.0000000000000000e+00" cType="1" res="-8.4289899095892906e-03" rms="4.3715941905975342e-01" purity="3.4114816784858704e-01" nType="-99"/>
        </Node>
        <Node pos="r" depth="1" NCoef="0" IVar="1" Cut="3.0502433776855469e+00" cType="1" res="-8.2619572058320045e-03" rms="4.4146940112113953e-01" purity="5.0760316848754883e-01" nType="0">
          <Node pos="l" depth="2" NCoef="0" IVar="-1" Cut="0.0000000000000000e+00" cType="1" res="3.8079502701293677e-05" rms="4.4277516007423401e-01" purity="5.3488916158676147e-01" nType="-99"/>
